tree
version=v3
num_class=1
num_tree_per_iteration=1
label_index=0
max_feature_idx=698
objective=lambdarank
feature_names=Column_0 Column_1 Column_2 Column_3 Column_4 Column_5 Column_6 Column_7 Column_8 Column_9 Column_10 Column_11 Column_12 Column_13 Column_14 Column_15 Column_16 Column_17 Column_18 Column_19 Column_20 Column_21 Column_22 Column_23 Column_24 Column_25 Column_26 Column_27 Column_28 Column_29 Column_30 Column_31 Column_32 Column_33 Column_34 Column_35 Column_36 Column_37 Column_38 Column_39 Column_40 Column_41 Column_42 Column_43 Column_44 Column_45 Column_46 Column_47 Column_48 Column_49 Column_50 Column_51 Column_52 Column_53 Column_54 Column_55 Column_56 Column_57 Column_58 Column_59 Column_60 Column_61 Column_62 Column_63 Column_64 Column_65 Column_66 Column_67 Column_68 Column_69 Column_70 Column_71 Column_72 Column_73 Column_74 Column_75 Column_76 Column_77 Column_78 Column_79 Column_80 Column_81 Column_82 Column_83 Column_84 Column_85 Column_86 Column_87 Column_88 Column_89 Column_90 Column_91 Column_92 Column_93 Column_94 Column_95 Column_96 Column_97 Column_98 Column_99 Column_100 Column_101 Column_102 Column_103 Column_104 Column_105 Column_106 Column_107 Column_108 Column_109 Column_110 Column_111 Column_112 Column_113 Column_114 Column_115 Column_116 Column_117 Column_118 Column_119 Column_120 Column_121 Column_122 Column_123 Column_124 Column_125 Column_126 Column_127 Column_128 Column_129 Column_130 Column_131 Column_132 Column_133 Column_134 Column_135 Column_136 Column_137 Column_138 Column_139 Column_140 Column_141 Column_142 Column_143 Column_144 Column_145 Column_146 Column_147 Column_148 Column_149 Column_150 Column_151 Column_152 Column_153 Column_154 Column_155 Column_156 Column_157 Column_158 Column_159 Column_160 Column_161 Column_162 Column_163 Column_164 Column_165 Column_166 Column_167 Column_168 Column_169 Column_170 Column_171 Column_172 Column_173 Column_174 Column_175 Column_176 Column_177 Column_178 Column_179 Column_180 Column_181 Column_182 Column_183 Column_184 Column_185 Column_186 Column_187 Column_188 Column_189 Column_190 Column_191 Column_192 Column_193 Column_194 Column_195 Column_196 Column_197 Column_198 Column_199 Column_200 Column_201 Column_202 Column_203 Column_204 Column_205 Column_206 Column_207 Column_208 Column_209 Column_210 Column_211 Column_212 Column_213 Column_214 Column_215 Column_216 Column_217 Column_218 Column_219 Column_220 Column_221 Column_222 Column_223 Column_224 Column_225 Column_226 Column_227 Column_228 Column_229 Column_230 Column_231 Column_232 Column_233 Column_234 Column_235 Column_236 Column_237 Column_238 Column_239 Column_240 Column_241 Column_242 Column_243 Column_244 Column_245 Column_246 Column_247 Column_248 Column_249 Column_250 Column_251 Column_252 Column_253 Column_254 Column_255 Column_256 Column_257 Column_258 Column_259 Column_260 Column_261 Column_262 Column_263 Column_264 Column_265 Column_266 Column_267 Column_268 Column_269 Column_270 Column_271 Column_272 Column_273 Column_274 Column_275 Column_276 Column_277 Column_278 Column_279 Column_280 Column_281 Column_282 Column_283 Column_284 Column_285 Column_286 Column_287 Column_288 Column_289 Column_290 Column_291 Column_292 Column_293 Column_294 Column_295 Column_296 Column_297 Column_298 Column_299 Column_300 Column_301 Column_302 Column_303 Column_304 Column_305 Column_306 Column_307 Column_308 Column_309 Column_310 Column_311 Column_312 Column_313 Column_314 Column_315 Column_316 Column_317 Column_318 Column_319 Column_320 Column_321 Column_322 Column_323 Column_324 Column_325 Column_326 Column_327 Column_328 Column_329 Column_330 Column_331 Column_332 Column_333 Column_334 Column_335 Column_336 Column_337 Column_338 Column_339 Column_340 Column_341 Column_342 Column_343 Column_344 Column_345 Column_346 Column_347 Column_348 Column_349 Column_350 Column_351 Column_352 Column_353 Column_354 Column_355 Column_356 Column_357 Column_358 Column_359 Column_360 Column_361 Column_362 Column_363 Column_364 Column_365 Column_366 Column_367 Column_368 Column_369 Column_370 Column_371 Column_372 Column_373 Column_374 Column_375 Column_376 Column_377 Column_378 Column_379 Column_380 Column_381 Column_382 Column_383 Column_384 Column_385 Column_386 Column_387 Column_388 Column_389 Column_390 Column_391 Column_392 Column_393 Column_394 Column_395 Column_396 Column_397 Column_398 Column_399 Column_400 Column_401 Column_402 Column_403 Column_404 Column_405 Column_406 Column_407 Column_408 Column_409 Column_410 Column_411 Column_412 Column_413 Column_414 Column_415 Column_416 Column_417 Column_418 Column_419 Column_420 Column_421 Column_422 Column_423 Column_424 Column_425 Column_426 Column_427 Column_428 Column_429 Column_430 Column_431 Column_432 Column_433 Column_434 Column_435 Column_436 Column_437 Column_438 Column_439 Column_440 Column_441 Column_442 Column_443 Column_444 Column_445 Column_446 Column_447 Column_448 Column_449 Column_450 Column_451 Column_452 Column_453 Column_454 Column_455 Column_456 Column_457 Column_458 Column_459 Column_460 Column_461 Column_462 Column_463 Column_464 Column_465 Column_466 Column_467 Column_468 Column_469 Column_470 Column_471 Column_472 Column_473 Column_474 Column_475 Column_476 Column_477 Column_478 Column_479 Column_480 Column_481 Column_482 Column_483 Column_484 Column_485 Column_486 Column_487 Column_488 Column_489 Column_490 Column_491 Column_492 Column_493 Column_494 Column_495 Column_496 Column_497 Column_498 Column_499 Column_500 Column_501 Column_502 Column_503 Column_504 Column_505 Column_506 Column_507 Column_508 Column_509 Column_510 Column_511 Column_512 Column_513 Column_514 Column_515 Column_516 Column_517 Column_518 Column_519 Column_520 Column_521 Column_522 Column_523 Column_524 Column_525 Column_526 Column_527 Column_528 Column_529 Column_530 Column_531 Column_532 Column_533 Column_534 Column_535 Column_536 Column_537 Column_538 Column_539 Column_540 Column_541 Column_542 Column_543 Column_544 Column_545 Column_546 Column_547 Column_548 Column_549 Column_550 Column_551 Column_552 Column_553 Column_554 Column_555 Column_556 Column_557 Column_558 Column_559 Column_560 Column_561 Column_562 Column_563 Column_564 Column_565 Column_566 Column_567 Column_568 Column_569 Column_570 Column_571 Column_572 Column_573 Column_574 Column_575 Column_576 Column_577 Column_578 Column_579 Column_580 Column_581 Column_582 Column_583 Column_584 Column_585 Column_586 Column_587 Column_588 Column_589 Column_590 Column_591 Column_592 Column_593 Column_594 Column_595 Column_596 Column_597 Column_598 Column_599 Column_600 Column_601 Column_602 Column_603 Column_604 Column_605 Column_606 Column_607 Column_608 Column_609 Column_610 Column_611 Column_612 Column_613 Column_614 Column_615 Column_616 Column_617 Column_618 Column_619 Column_620 Column_621 Column_622 Column_623 Column_624 Column_625 Column_626 Column_627 Column_628 Column_629 Column_630 Column_631 Column_632 Column_633 Column_634 Column_635 Column_636 Column_637 Column_638 Column_639 Column_640 Column_641 Column_642 Column_643 Column_644 Column_645 Column_646 Column_647 Column_648 Column_649 Column_650 Column_651 Column_652 Column_653 Column_654 Column_655 Column_656 Column_657 Column_658 Column_659 Column_660 Column_661 Column_662 Column_663 Column_664 Column_665 Column_666 Column_667 Column_668 Column_669 Column_670 Column_671 Column_672 Column_673 Column_674 Column_675 Column_676 Column_677 Column_678 Column_679 Column_680 Column_681 Column_682 Column_683 Column_684 Column_685 Column_686 Column_687 Column_688 Column_689 Column_690 Column_691 Column_692 Column_693 Column_694 Column_695 Column_696 Column_697 Column_698
feature_infos=[0:0.74141999999999997] [0:1] none none none [0:0.99999000000000005] [0:0.80869999999999997] [0:0.99924999999999997] [0:0.80003000000000002] [0:0.99999000000000005] [0:0.93135999999999997] [0:0.99944] none none none none [8.4527999999999996e-07:0.99997999999999998] [0:1] none [0:0.99999000000000005] [0:0.77817999999999998] [0:0.92596000000000001] [0:1] none [0:0.88088999999999995] [0:0.99997999999999998] [0:0.99999000000000005] [0:0.99994000000000005] [0:0.99841000000000002] [0:0.95235999999999998] [0:1] [0:0.80374000000000001] [0:0.96897] [0:1] none [0:1] [0:0.99921000000000004] none [0:0.99789000000000005] none [0:0.99999000000000005] none [0:0.97935000000000005] [0:0.93423] [0:1] [0:0.99999000000000005] [0:0.92596000000000001] [0:1] none none none none [0:1] none [0:0.99994000000000005] [0:1] none [0:1] none [0:1] none [0:1] none [0:1] none [0:0.99999000000000005] [0:0.99882000000000004] none [0:1] [6.7622000000000002e-06:0.99999000000000005] [0:0.99853000000000003] none none [0:1] [0:0.98826999999999998] [0:0.99999000000000005] [0:1] [0:1] [0:0.99999000000000005] [0:0.99907000000000001] [0:0.99999000000000005] [0:0.99470000000000003] [0:0.90676999999999996] none [0:0.99999000000000005] [0:1] [0:0.97628000000000004] [0:0.98778999999999995] [0:0.99990999999999997] none [0:0.99999000000000005] none none none none [0:1] [0:1] [0:1] [0:0.99997000000000003] [0:1] [0:1] [0:0.98062000000000005] none [0:1] none [0:0.81369000000000002] [0:1] [0:0.99999000000000005] none [0:0.99997000000000003] [0:0.99995999999999996] none none [0:0.97672000000000003] none none [0:0.85841999999999996] none none [0:1] [0:1] [0:0.99195999999999995] [0:0.99997999999999998] [0:0.99999000000000005] [0:0.99870999999999999] [0:0.54390000000000005] [0:0.99999000000000005] [0:1] [0:1] none [0:0.99997000000000003] [0:0.96501999999999999] [0:0.99999000000000005] none [0:1] none [0:1] [0:1] [0:1] [0:0.99999000000000005] [0:0.99999000000000005] none [0:1] [0:0.92320000000000002] [0:1] [0:1] [0:1] none [0:1] [0:0.99999000000000005] [0:1] [0:1] [0:0.99978999999999996] [0:0.97935000000000005] [0:0.66796] none [0:0.99997000000000003] [0:0.92354999999999998] [0:0.99997999999999998] [0:1] [0:0.99992999999999999] [0:0.86058999999999997] [0:0.99953999999999998] [0:1] [0:0.99999000000000005] [0:0.99999000000000005] [0:1] [0:1] [0:1] [0:0.99829999999999997] none [0:0.99999000000000005] [0:1] [0:1] [0:0.99999000000000005] [0:0.72928999999999999] [0:0.99995000000000001] [0:0.54927000000000004] [0:1] none [0:0.99988999999999995] [0:0.99999000000000005] none none none [0:1] [0:0.99999000000000005] none [0:0.99999000000000005] [0:0.99995000000000001] [0:0.99575000000000002] [0:0.99997999999999998] [0:0.99548999999999999] none [0:1] [0:1] [0:1] none [0:1] none [0:0.92642000000000002] [0:0.99999000000000005] none [0:0.88736999999999999] [0:1] [0:0.81369000000000002] none [0:0.64295999999999998] none none none [0:0.94599] none none [0:0.95513999999999999] [0:0.99975000000000003] none none [0:0.95357999999999998] [0:0.99995999999999996] none [0:0.99712000000000001] [0:0.99995999999999996] [0:0.99977000000000005] [0:0.99992999999999999] [0:0.98033999999999999] [2.6863999999999999e-05:0.99994000000000005] [0:0.98746999999999996] [0:0.99999000000000005] [0:0.86841000000000002] [0:0.99997999999999998] [0:1] [0:0.75832999999999995] [0:0.99972000000000005] [0:0.99999000000000005] [0:0.97069000000000005] none [0:0.99960000000000004] [0:0.99999000000000005] [0:0.99999000000000005] [1.6906e-06:0.99999000000000005] [0:0.81950000000000001] [0:0.99999000000000005] [0:0.99990999999999997] [0:0.99997999999999998] [1.592e-05:0.99995000000000001] [0:0.99999000000000005] [0:0.99999000000000005] none none [0:0.99594000000000005] none [0:0.99999000000000005] [0:0.99997999999999998] [0:0.99999000000000005] [0:1] [0:1] none [0:0.21315999999999999] [0:1] [0:0.99992999999999999] [0:0.92596000000000001] none [0:0.99938000000000005] [0:1] [0:0.99997000000000003] [0:1] [0:1] none none [0:0.98329] none none [0:1] [0:1] [0:0.99999000000000005] [0:1] none [0:0.8579] none [0:0.91144999999999998] [0:0.88427] [0:0.81730000000000003] [0:1] [0:0.61590999999999996] [0:1] [1.592e-05:0.99995000000000001] [0:0.99882000000000004] [0:0.99995999999999996] [0:0.97672000000000003] [0:0.96897] [0:0.94562000000000002] none [0:1] [0:0.99336000000000002] none [0:1] [0:1] [0:1] [0:0.99987999999999999] [0:1] [0:0.97772999999999999] none [0:1] [0:0.95189999999999997] none none [0:0.88088999999999995] [0:0.95155999999999996] none [0:0.99204999999999999] [0:1] [0:0.99999000000000005] none none [0:0.99594000000000005] [0:0.98678999999999994] none [0:0.97628000000000004] [0:0.99916000000000005] [0:1] [0:1] [0:0.99999000000000005] [0:1] [0:0.54927000000000004] [0:0.81728000000000001] none none [0:0.99999000000000005] [0:0.98678999999999994] [0:0.99509999999999998] [8.4527999999999998e-06:1] [0:0.94413999999999998] none [0:1] none [0:1] [0:1] [0:0.99814000000000003] [0:0.99594000000000005] [0:0.99999000000000005] [0:0.97094999999999998] none [0:0.99202999999999997] [0:0.99999000000000005] none [0:0.99731000000000003] [0:0.99999000000000005] [0:1] [0:0.99999000000000005] none [0:0.99999000000000005] [0:0.99799000000000004] [0:0.92596000000000001] [0:1] [0:1] none [0:0.99999000000000005] [0:0.99983] none [0:0.999] [0:0.99999000000000005] [0:0.99983] [0:0.99980000000000002] none [0:0.99982000000000004] [0:0.99982000000000004] none [0:0.98724999999999996] none none [0:1] none [2.1889e-05:0.99992000000000003] [0:0.88088999999999995] [0:0.99997999999999998] [3.2833999999999998e-05:0.99990000000000001] [0:1] [0:0.99999000000000005] none [0:0.99888999999999994] [0:0.99999000000000005] [2.5357999999999999e-06:0.54927000000000004] [0:0.95189999999999997] [0:1] none [0:0.54927000000000004] [0:0.98841000000000001] [0:0.75439000000000001] [0:0.99999000000000005] [0:0.99882000000000004] [0:0.81369000000000002] [0:0.99997000000000003] [0:0.99758000000000002] [0:0.99999000000000005] none [0:0.92367999999999995] [0:0.99748000000000003] [0:1] [0:0.96867000000000003] [0:0.98841000000000001] none none [0:0.85138000000000003] [0:0.99997999999999998] none none [0:0.99995999999999996] none [0:0.99999000000000005] none [0:1] none [0:1] none [0:0.99999000000000005] [0:0.90712999999999999] [8.4527999999999996e-07:1] none none [0:0.99995000000000001] none [0:0.98841000000000001] none [0:0.98746999999999996] [0:0.99999000000000005] [0:0.99997999999999998] [0:0.85953000000000002] [0:0.98533000000000004] [0:0.99999000000000005] [0:1] [0:0.99975999999999998] [0:1] [0:0.99999000000000005] [0:0.99999000000000005] [0:0.99999000000000005] [0:0.99994000000000005] [0:1] [0:1] [0:0.99853000000000003] [0:0.99953999999999998] [0:0.99999000000000005] [0:0.99999000000000005] [0:1] [0:1] [0:0.99999000000000005] [0:0.99997999999999998] [0:0.99594000000000005] none [0:1] [0.010995:0.99977000000000005] [0:0.99992999999999999] [0:1] [0:1] [0:0.97628000000000004] [0:0.99988999999999995] [0:1] [0:1] [0:0.99995000000000001] none [0:1] none [0:0.97169000000000005] none [0:0.99729000000000001] none none [3.6813999999999997e-05:0.99988999999999995] [0:0.97628000000000004] [0:0.99999000000000005] none [0:0.99994000000000005] [0:0.96735000000000004] [0:1] [0:0.99592999999999998] [0:1] [0:0.99997999999999998] [0:0.85841999999999996] [0:0.85841999999999996] [0:0.82223000000000002] [0:0.99956] none [0:0.79078000000000004] none [0:0.87234] [0:0.99999000000000005] [0:1] [3.5818999999999997e-05:0.99995999999999996] [0:0.99997999999999998] none none [0:0.96392999999999995] [0:0.85841999999999996] [0:0.96392999999999995] [0:0.99995999999999996] none [0:1] [0:0.99089000000000005] [0:0.99997999999999998] [0:0.99929000000000001] none [0:0.98907] none [0:0.99999000000000005] [0:0.99999000000000005] none [0:0.99995000000000001] [0:0.99999000000000005] none none [0:0.99999000000000005] [0:0.99882000000000004] [0:1] [0:0.42766999999999999] [0:1] none [0:0.98746999999999996] [0:0.83518999999999999] [0:0.99999000000000005] none [0:0.99999000000000005] none none none [0:1] none [0:0.77817999999999998] [0:0.96438000000000001] [0:1] none [0:0.99822999999999995] [0:1] [0:1] [0:0.99999000000000005] [0:0.99999000000000005] none [0:0.99690999999999996] [0:0.99999000000000005] [0:0.99999000000000005] [0:0.99994000000000005] [0:1] [0:0.57704999999999995] none [0:1] [0:0.99997999999999998] [0:0.99999000000000005] none [0:1] none [0:0.99999000000000005] none none none [0:0.99929000000000001] [0:0.96897] [0:1] [0:0.99997000000000003] [0:1] [0:0.88088999999999995] none [0:1] [0:1] [0:1] [0:0.99999000000000005] [0:0.99758000000000002] [0:0.99917999999999996] none [0:1] [0:0.99855000000000005] [0:0.99994000000000005] [0:0.99999000000000005] [0:0.99995999999999996] none [0:0.99999000000000005] [0:0.92320000000000002] none none [0:1] [0:1] [0:1] [0:1] none [0:0.97833000000000003] none [0:1] [0:0.99731000000000003] [0:0.87048999999999999] none [0:0.99089000000000005] [0:0.82796000000000003] [0:0.98841000000000001] [0:1] none [0:1] [0.00010059:1] [1.0142999999999999e-05:1] none [0:0.99999000000000005] none [0:0.74838000000000005] none [0:0.99999000000000005] [0:0.99980999999999998] [0:0.99999000000000005] [0:0.99978999999999996] [0:1] [0:0.99994000000000005] [0:1] none [0:1] [0:0.86065000000000003] [0:0.99995000000000001] [0:0.99695] [0:0.99995999999999996] [0:0.99997999999999998] [0:0.64437999999999995] none [0:1] none [0:0.99999000000000005] [0:0.98907] [0:1] [0:0.99999000000000005] [0:1] [0:1] none [0:0.54927000000000004] [0:0.99999000000000005] [0:0.81369000000000002] none [0:0.99999000000000005] none [0:0.99999000000000005] [0:0.99490000000000001] none [1.6915e-05:0.99997999999999998] [0:0.99999000000000005] [3.3811000000000001e-06:0.99999000000000005] [0:0.99997999999999998] [0:1] [0:1] [0:0.99999000000000005] [0:1] [0:0.70560999999999996] [0:0.99995999999999996] none [0:0.99927999999999995] [0:0.99985000000000002] none [0:1] none none none [0:1] none [0:0.99999000000000005] [0:0.97392000000000001] [0:0.97879000000000005] [0:0.99999000000000005] [0:0.96536999999999995] [0:0.99478999999999995] none [0:1] [0:0.99999000000000005] [0:0.99999000000000005] [0:0.99997000000000003] none none [9.9498000000000009e-07:0.47892000000000001] [0:0.96838000000000002] [0:0.99983999999999995] none none [0:1] none [0:1] [0:0.99999000000000005] [0:1] none [0:1] [0:0.96897] [0:0.89724999999999999] [0:0.97809000000000001] none [0:0.99995999999999996] [0:0.99363000000000001] [0:1] [0:0.98746999999999996] [0:0.99060000000000004] [0:0.99999000000000005] [0:0.96328999999999998] [0:0.88568999999999998] [0:1] [0:1] [0:0.99765000000000004] [0:1] [8.4527999999999996e-07:0.046566999999999997] [0:0.99999000000000005] [0:1]
tree_sizes=1242 1247 1249 1245 1236 1243 1240 1242 1249 1245 1242 1238 1253 1239 1240 1242 1241 1243 1237 1250 1242 1240 1252 1244 1246 1244 1245 1245 1252 1242 1244 1251 1247 1249 1244 1244 1244 1245 1246 1243 1246 1250 1245 1251 1252 1234 1249 1249 1250 1240

Tree=0
num_leaves=10
num_cat=0
split_feature=443 636 99 166 36 462 426 462 349
split_gain=2415.37 642.086 428.707 263.574 281.226 202.924 142.719 115.782 110.979
threshold=0.91358500000000009 0.23613500000000001 0.97572000000000003 0.46279500000000007 0.51044500000000015 0.94170000000000009 0.52699000000000018 0.96920000000000017 0.2553450000000001
decision_type=2 2 2 2 2 2 2 2 2
left_child=1 8 -2 6 5 -5 -3 -6 -1
right_child=2 3 -4 4 7 -7 -8 -9 -10
leaf_value=-0.041064169683297097 0.036133666471328089 -0.0025302741517894758 0.086943645556469162 -0.017426775590659457 -0.0025072698586032405 -0.070726159648912157 0.012864544853412582 0.030975067568396478 -0.01937515379452194
leaf_weight=1215.2240118243062 1111.6546407814531 2922.550005708661 662.59268762893043 2593.0900040561537 3251.575899446776 191.78643739767722 3104.8698310449108 280.46706764103146 1145.9776741703681
leaf_count=37382 29850 78702 9927 85892 104129 5131 81965 7958 32198
internal_value=0 -0.00664895 0.0551087 -0.00207955 -0.0092163 -0.0210974 0.00539997 0.000151444 -0.0305377
internal_weight=0 14705.5 1774.25 12344.3 6316.92 2784.88 6027.42 3532.04 2361.2
internal_count=473134 433357 39777 363777 203110 91023 160667 112087 69580
is_linear=0
shrinkage=0.05


Tree=1
num_leaves=10
num_cat=0
split_feature=99 426 533 443 646 562 636 646 36
split_gain=10389.8 1386.09 1219.75 926.646 667.705 794.302 420.184 398.884 553.421
threshold=0.95027500000000009 1.0000000180025095e-35 0.98615500000000011 0.84970000000000001 0.68881000000000003 0.84178000000000008 0.5249950000000001 0.47507500000000008 0.51044500000000015
decision_type=2 2 2 2 2 2 2 2 2
left_child=1 3 -2 7 6 -6 -3 -1 -9
right_child=2 4 -4 -5 5 -7 -8 8 -10
leaf_value=-0.015729979445974158 0.041715397824925317 -0.0036594994547811894 0.085763907428878045 0.01129248999996405 -0.018920596254294889 0.0090639835020104136 0.011020591840899936 -0.048272565603773916 -0.019634656080867431
leaf_weight=10325.357995645551 3938.0993164656684 8708.8588417680585 2615.3857024312019 2379.9631976925302 8330.2179479203187 3645.2094328189269 11070.81567458791 2827.1648774533533 4183.0588966311188
leaf_count=110082 17195 58162 6214 15685 86529 25714 68610 42408 42535
internal_value=0 -0.00754964 0.0592944 -0.017963 -0.00108441 -0.0104023 0.00455705 -0.0219794 -0.0311841
internal_weight=0 51470.6 6553.49 19715.5 31755.1 11975.4 19779.7 17335.6 7010.22
internal_count=473134 449725 23409 210710 239015 112243 126772 195025 84943
is_linear=0
shrinkage=0.05


Tree=2
num_leaves=10
num_cat=0
split_feature=409 426 99 443 646 7 646 445 561
split_gain=7015.87 1096.16 1083.25 819.483 470.671 461.571 630.922 337.59 322.384
threshold=0.94859500000000019 1.0000000180025095e-35 0.98235500000000009 0.80327500000000007 0.47821000000000008 0.65794000000000008 0.65789500000000012 0.095297500000000021 0.96389500000000006
decision_type=2 2 2 2 2 2 2 2 2
left_child=1 3 -2 4 7 6 -3 -1 -5
right_child=2 5 -4 8 -6 -7 -8 -9 -10
leaf_value=-0.036324511826024156 0.035032809863981537 0.0004010939533447323 0.079391730253135451 0.00054013397607090285 -0.033043009594337536 0.0072253785310276864 -0.019793411128127238 -0.01030671881404301 0.045133580973961605
leaf_weight=1477.7161836260348 3722.2218435816467 13421.135659555788 2183.6896436531097 2427.4374961797148 5249.9200933895772 11695.227656408097 5433.4726398419589 7977.7863982418203 486.52736783307046
leaf_count=21170 16666 83981 6943 20639 78047 92143 61552 88781 3212
internal_value=0 -0.00630624 0.0514344 -0.0162381 -0.0210382 -0.000578117 -0.00541851 -0.0143728 0.00798564
internal_weight=0 48169.2 5905.91 17619.4 14705.4 30549.8 18854.6 9455.5 2913.96
internal_count=473134 449525 23609 211849 187998 237676 145533 109951 23851
is_linear=0
shrinkage=0.05


Tree=3
num_leaves=10
num_cat=0
split_feature=443 99 426 7 646 409 646 36 166
split_gain=5591.21 1099.52 980.626 557.657 492.07 447.586 404.842 342.144 298.905
threshold=0.93174500000000016 0.97572000000000003 0.51797000000000015 0.65794000000000008 0.66202000000000016 0.83508000000000016 0.47507500000000008 0.54119500000000009 0.49776000000000004
decision_type=2 2 2 2 2 2 2 2 2
left_child=2 -2 5 4 -4 6 -1 -8 -5
right_child=1 -3 3 8 -6 -7 7 -9 -10
leaf_value=-0.011887954311815593 0.02712277390772555 0.069793369945726949 -0.00036800597509469626 0.015776514682802511 -0.020557404936549107 0.008341009421655941 -0.042753706439523191 -0.017849477469840856 -0.00031455903215873879
leaf_weight=11652.372780808713 3782.5238775443286 2512.4361548637971 10143.418173820945 6247.2149761322653 4296.2948041060008 1899.6238703220151 2354.1883860511007 3329.7323560200166 5364.1364890858531
leaf_count=130799 21631 9811 69372 27711 57618 16650 45338 42601 51603
internal_value=0 0.0441534 -0.00613739 0.000184961 -0.00637502 -0.0146997 -0.0172244 -0.0281644 0.00834287
internal_weight=0 6294.96 45287 26051.1 14439.7 19235.9 17336.3 5683.92 11611.4
internal_count=473134 31442 441692 206304 126990 235388 218738 87939 79314
is_linear=0
shrinkage=0.05


Tree=4
num_leaves=10
num_cat=0
split_feature=99 409 636 506 562 36 375 443 462
split_gain=4555.59 990.015 855.237 728.065 548.038 390.455 336.485 294.565 229.413
threshold=0.9228400000000001 0.98094500000000007 0.3343850000000001 0.45108000000000004 0.82633000000000012 0.51044500000000015 0.3847850000000001 0.7836550000000001 0.96920000000000017
decision_type=2 2 2 2 2 2 2 2 2
left_child=2 7 -1 6 5 -5 -4 -2 -7
right_child=1 -3 3 4 -6 8 -8 -9 -10
leaf_value=-0.01927519821053332 -0.032400956425541479 0.067971063342963267 -0.0017439537395212174 -0.027600015832030662 0.0059675122563234342 -0.011391819181929221 0.01192626135503487 0.028723108498501265 0.019661400269589142
leaf_weight=9346.8510486946325 206.86038724705577 2044.2811406822875 9664.3435828187503 4314.9368174629635 3900.5222188585903 6394.6446530180983 8426.2754398649558 4179.302775408607 655.75705347303301
leaf_count=112123 2851 8591 70027 74580 39047 76370 58012 25151 6382
internal_value=0 0.039234 -0.00590802 -0.00216239 -0.0102038 -0.0157537 0.00462338 0.0258404 -0.00850356
internal_weight=0 6430.44 42703.3 33356.5 15265.9 11365.3 18090.6 4386.16 7050.4
internal_count=473134 36593 436541 324418 196379 157332 128039 28002 82752
is_linear=0
shrinkage=0.05


Tree=5
num_leaves=10
num_cat=0
split_feature=99 409 426 646 636 380 443 646 36
split_gain=3857.82 1029.93 773.691 476.977 343.038 268.563 266.459 260.23 244.75
threshold=0.89842500000000014 0.98094500000000007 0.51649500000000015 0.6491650000000001 0.12097500000000001 0.91371500000000017 0.79916500000000013 0.64047500000000013 0.52972000000000008
decision_type=2 2 2 2 2 2 2 2 2
left_child=2 6 4 5 -1 -4 -2 -6 -5
right_child=1 -3 3 8 7 -7 -8 -9 -10
leaf_value=-0.033252838530522098 -0.020957533810094256 0.065088190537896315 0.0038486042983632272 -0.021467200161976938 -0.0089959397425970044 0.035346349728997396 0.025073866915958105 -0.028471852536335815 -0.0032707028315754824
leaf_weight=2056.4848757879226 334.82064670999534 1886.9901509871706 13747.969747164403 2881.0488680013223 13327.647716179024 711.78543417382753 5150.9648471791297 1968.4709614907624 5153.3683442377951
leaf_count=32529 5061 8591 87764 46534 163608 3732 34560 32686 58069
internal_value=0 0.0332247 -0.00614751 -2.81707e-05 -0.01408 0.00539909 0.0222644 -0.0115023 -0.00979576
internal_weight=0 7372.78 39846.8 22494.2 17352.6 14459.8 5485.79 15296.1 8034.42
internal_count=473134 48212 424922 196099 228823 91496 39621 196294 104603
is_linear=0
shrinkage=0.05


Tree=6
num_leaves=10
num_cat=0
split_feature=443 636 99 506 409 36 7 636 188
split_gain=3242.36 775.598 760.748 499.498 460.696 318.136 289.773 228.938 197.64
threshold=0.92613500000000004 0.39780500000000002 0.97990500000000014 0.45361500000000005 0.8377150000000001 0.52335500000000013 0.64392000000000016 0.13571500000000003 0.88769500000000012
decision_type=2 2 2 2 2 2 2 2 2
left_child=1 7 8 6 5 -5 -3 -1 -2
right_child=2 3 -4 4 -6 -7 -8 -9 -10
leaf_value=-0.030504459445408277 0.0098489362344398555 0.0006872080817666216 0.064102099332788029 -0.024909697539666587 0.0078261352459253995 -0.0062815025914755053 0.015207935968647279 -0.012471551674442357 0.032898537795629401
leaf_weight=2161.9858818068169 1546.724912956357 9964.4400326058967 1666.2622244451195 3616.3771724906983 3583.3152951225638 6258.4710867737886 5243.8275296523934 9467.3355796915712 2332.46206381917
leaf_count=36674 10889 79031 8200 70809 37190 78434 29110 107808 14989
internal_value=0 -0.004933 0.0358454 -0.000514766 -0.00753089 -0.0131035 0.00569397 -0.015824 0.0237081
internal_weight=0 40295.8 5545.45 28666.4 13458.2 9874.85 15208.3 11629.3 3879.19
internal_count=473134 439056 34078 294574 186433 149243 108141 144482 25878
is_linear=0
shrinkage=0.05


Tree=7
num_leaves=10
num_cat=0
split_feature=99 636 533 7 501 462 443 304 380
split_gain=2891.8 733.896 532.24 390.418 417.918 258.914 217.622 202.674 192.889
threshold=0.94053000000000009 0.39780500000000002 0.98715500000000012 0.65794000000000008 0.50732500000000014 0.96920000000000017 0.78173500000000018 0.72188000000000008 0.44777000000000006
decision_type=2 2 2 2 2 2 2 2 2
left_child=1 7 6 4 -3 -6 -2 -1 -5
right_child=2 3 -4 8 5 -7 -8 -9 -10
leaf_value=-0.010145535462950273 -0.038517796416048952 0.00035555857537885357 0.066727381730535981 -0.0041202390153533301 -0.019482371241552401 0.029556424281330568 0.030085967708671637 -0.024219737733141233 0.010024140061461158
leaf_weight=6999.7722812488209 119.84098119661212 10721.130721789319 1174.0347170615569 3232.4668412501924 4989.0209205916617 284.51363806333393 3264.4981031902134 4030.9807257398497 9477.2413598385174
leaf_count=87613 2021 92630 5759 30721 84978 2930 20406 57095 88981
internal_value=0 -0.00432715 0.0377196 -0.00011476 -0.00531282 -0.0168367 0.0276567 -0.0152887 0.00642679
internal_weight=0 39735.1 4558.37 28704.4 15994.7 5273.53 3384.34 11030.8 12709.7
internal_count=473134 444948 28186 300240 180538 87908 22427 144708 119702
is_linear=0
shrinkage=0.05


Tree=8
num_leaves=10
num_cat=0
split_feature=99 533 191 646 636 462 24 646 473
split_gain=2649.71 690.065 656.325 363.344 289.448 240.457 200.857 271.043 210.184
threshold=0.89842500000000014 0.9821700000000001 0.43891500000000006 0.67127000000000014 0.56337500000000007 0.96920000000000017 1.0000000180025095e-35 0.5125900000000001 0.15655500000000003
decision_type=2 2 2 2 2 2 2 2 2
left_child=2 -2 5 4 -4 6 7 8 -1
right_child=1 -3 3 -5 -6 -7 -8 -9 -10
leaf_value=-0.028500842659426526 0.020354688784669481 0.058697179558379088 -0.0031045680442017337 -0.0092643760572968664 0.010410440258982927 0.01730792010325469 -0.0024263963856502972 -0.034442622124405436 -0.0098422687022870492
leaf_weight=2002.2940003422555 4962.2526732720435 1536.9069660296664 7448.1515000651125 7501.3701143253129 8463.3011926738545 581.44322113809176 2360.6502948137932 2137.933788456372 6130.4651243120315
leaf_count=30454 40146 8066 63159 110853 58119 6920 33299 40753 81365
internal_value=0 0.0294218 -0.00522086 -0.00019272 0.00408406 -0.0141306 -0.0155778 -0.0186006 -0.014436
internal_weight=0 6499.16 36625.6 23412.8 15911.5 13212.8 12631.3 10270.7 8132.76
internal_count=473134 48212 424922 232131 121278 192791 185871 152572 111819
is_linear=0
shrinkage=0.05


Tree=9
num_leaves=10
num_cat=0
split_feature=443 99 426 380 304 462 7 457 188
split_gain=2352.58 744.506 609.375 383.298 212.849 207.608 167.912 163.217 159.226
threshold=0.88884000000000019 0.97409500000000004 0.79933000000000021 0.45208500000000001 0.71243000000000012 0.96920000000000017 0.77502500000000019 0.16933000000000001 0.89140500000000011
decision_type=2 2 2 2 2 2 2 2 2
left_child=2 8 3 4 -1 7 -4 -5 -2
right_child=1 -3 6 5 -6 -7 -8 -9 -10
leaf_value=-0.010191872824197741 0.0074749064788457486 0.054359321731372395 0.0022130303670551805 -0.036976910263154757 -0.024173464294613325 0.020579863925540301 0.018204625231633062 -0.004314957979480792 0.025610276335778316
leaf_weight=6521.0250865420094 2315.8049713834189 1832.7528463043272 7129.5073856568197 393.40550834173337 4672.4868652051664 825.03695440664887 2132.4596762661822 13786.818334671727 2535.4233742789365
leaf_count=84938 20010 10688 64090 5678 71154 7632 14983 173632 20329
internal_value=0 0.0272099 -0.00512879 -0.00902596 -0.0160282 -0.00380249 0.00589491 -0.00522111 0.0169531
internal_weight=0 6683.98 35460.7 26198.8 11193.5 15005.3 9261.97 14180.2 4851.23
internal_count=473134 51027 422107 343034 156092 186942 79073 179310 40339
is_linear=0
shrinkage=0.05


Tree=10
num_leaves=10
num_cat=0
split_feature=443 636 561 7 501 462 636 303 646
split_gain=2131.55 674.898 432.912 306.2 332.111 272.748 240.286 160.015 123.7
threshold=0.93639500000000009 0.47356500000000007 0.96674500000000008 0.7450500000000001 0.52482000000000018 0.96920000000000017 0.14912500000000004 0.82318000000000013 0.63675500000000007
decision_type=2 2 2 2 2 2 2 2 2
left_child=1 6 -2 4 -3 -6 -1 -5 -8
right_child=2 3 -4 7 5 -7 8 -9 -10
leaf_value=-0.027673740588076076 0.019898257637215987 0.0027456300851991296 0.052395387586385483 0.014599942261628973 -0.015658689615916408 0.027581062281280273 -0.0072861591907885815 -0.0014610866143733188 -0.020756194345207736
leaf_weight=2213.9357639512746 2393.1587458224967 10244.349909180135 1792.3763602860272 5174.967955987202 5051.2085320373881 393.08023481722921 9520.0648917512735 2214.3890597568825 2076.0852526442613
leaf_count=40359 18150 89226 11108 50149 91109 4132 108359 25463 35079
internal_value=0 -0.00383679 0.0338145 0.00139493 -0.00255768 -0.0125368 -0.0125795 0.00978689 -0.00969773
internal_weight=0 36888.1 4185.54 23078 15688.6 5444.29 13810.1 7389.36 11596.2
internal_count=473134 443876 29258 260079 184467 95241 183797 75612 143438
is_linear=0
shrinkage=0.05


Tree=11
num_leaves=10
num_cat=0
split_feature=99 426 99 646 375 36 646 260 36
split_gain=1941.53 579.128 557.175 267.987 221.409 213.205 196.814 165.506 146.225
threshold=0.88912500000000005 0.51797000000000015 0.98488500000000012 0.64462500000000011 0.41577500000000006 0.54119500000000009 0.50614000000000015 0.95313000000000014 0.54119500000000009
decision_type=2 2 2 2 2 2 2 2 2
left_child=1 5 7 4 -3 6 -1 -2 -5
right_child=2 3 -4 8 -6 -7 -8 -9 -10
leaf_value=-0.013789982798559794 0.012605083176502573 -0.00096091758566636864 0.057208312184487901 -0.016629276254493567 0.012396778470613528 -0.00601195655407398 -0.033376523580974336 0.032032789832955787 -0.0013335404466154621
leaf_weight=5954.9827099001268 3607.5050575691275 6569.1179439416155 1133.5165104847401 2502.1697379872203 5878.0991887970013 7233.4202351777349 1634.633190830471 1574.810081272386 4160.637818954885
leaf_count=87925 34096 48799 6801 47570 40592 99959 40234 11639 55519
internal_value=0 -0.00473771 0.0254543 0.00101515 0.00534715 -0.0121544 -0.0180085 0.0185088 -0.00707774
internal_weight=0 33933.1 6315.83 19110 12447.2 14823 7589.62 5182.32 6662.81
internal_count=473134 420598 52536 192480 89391 228118 128159 45735 103089
is_linear=0
shrinkage=0.05


Tree=12
num_leaves=10
num_cat=0
split_feature=409 636 99 36 506 603 166 24 100
split_gain=1751.03 586.133 440.643 300.163 328.905 220.85 193.283 129.191 154.648
threshold=0.92022000000000015 0.32309500000000008 0.98235500000000009 0.5374000000000001 0.54507500000000009 0.91722500000000007 0.48792000000000008 1.0000000180025095e-35 1.0000000180025095e-35
decision_type=2 2 2 2 2 2 2 2 2
left_child=1 7 -2 4 -3 6 -5 8 -1
right_child=2 3 -4 5 -6 -7 -8 -9 -10
leaf_value=-0.026367971365900363 0.019788465797515864 -0.001516824262091063 0.05531265841508929 0.0069192440985839793 -0.020078035714248821 0.019876874543904015 -0.0050800229107942707 0.0072096067768940468 -0.010972800649020828
leaf_weight=3281.9405356772477 3690.0494025149383 8752.1999791377457 1143.4196509039029 7732.6885473685688 3281.5761656661052 1906.7268556379713 5929.4131076962221 518.72049423400313 3243.2082029652083
leaf_count=54878 29663 91150 7053 62878 70346 20003 85072 5653 46438
internal_value=0 -0.00393304 0.0281922 -0.000647786 -0.00657841 0.00393624 0.00171151 -0.0168069 -0.0187161
internal_weight=0 34646.5 4833.47 27602.6 12033.8 15568.8 13662.1 7043.87 6525.15
internal_count=473134 436418 36716 329449 161496 167953 147950 106969 101316
is_linear=0
shrinkage=0.05


Tree=13
num_leaves=10
num_cat=0
split_feature=443 380 99 569 426 462 153 646 457
split_gain=1590.17 537.169 523.261 295.922 251.784 160.192 143.092 130.484 121.96
threshold=0.88884000000000019 0.46874000000000005 0.97409500000000004 0.42120500000000005 0.79987500000000011 0.96920000000000017 0.27729500000000001 0.64582500000000009 0.16933000000000001
decision_type=2 2 2 2 2 2 2 2 2
left_child=1 3 -2 6 5 8 -1 -5 -3
right_child=2 4 -4 7 -6 -7 -8 -9 -10
leaf_value=-0.02803484197542791 0.014766011710198727 -0.035178279412513072 0.04816748156836765 -0.0030562161033547866 0.010113665214828253 0.019002467010889326 -0.011045023850595907 -0.018359715327573765 -0.0031852093665266572
leaf_weight=3127.7157397757401 4439.7605592524633 305.2585202716291 1593.3370315684006 6840.7401979601127 5509.6274265127722 808.24552386929281 2052.615996502107 1749.021851139958 12329.730133409903
leaf_count=52984 40339 5572 10688 73589 49716 7481 31826 32792 168147
internal_value=0 -0.00434877 0.0235873 -0.0118644 0.0011117 -0.0025777 -0.0213029 -0.00617227 -0.00395815
internal_weight=0 32723 6033.1 13770.1 18952.9 13443.2 5180.33 8589.76 12635
internal_count=473134 422107 51027 191191 230916 181200 84810 106381 173719
is_linear=0
shrinkage=0.05


Tree=14
num_leaves=10
num_cat=0
split_feature=188 191 533 646 375 613 445 380 462
split_gain=1459.46 567.29 405.502 251.279 237.909 198.368 170.209 155.042 134.19
threshold=0.89379500000000012 0.45156000000000007 0.98022500000000012 0.66871000000000003 0.35227500000000006 0.75902000000000014 0.065932000000000004 0.91371500000000017 0.96920000000000017
decision_type=2 2 2 2 2 2 2 2 2
left_child=1 6 5 4 -3 -2 -1 -6 -8
right_child=2 3 -4 -5 7 -7 8 -9 -10
leaf_value=-0.033074936566441435 -0.031791771914529976 -0.0030422845703345935 0.050018311415078287 -0.0068541031220104203 0.0080940478198764081 0.019601637454269166 -0.012033121144255785 0.032163619019748207 0.01334925603695609
leaf_weight=927.69700897834264 197.84692744771019 5687.8653000727063 1221.1314573483542 6711.6868548624916 7815.9780503645889 3681.7169850431383 10560.371860735409 731.67250643274747 547.71642495505512
leaf_count=18367 3654 48625 8096 109544 65693 39546 168760 4674 6175
internal_value=0 -0.00384916 0.0248901 0.00112136 0.0048816 0.0169807 -0.0124999 0.0101544 -0.0107816
internal_weight=0 32983 5100.7 20947.2 14235.5 3879.56 12035.8 8547.65 11108.1
internal_count=473134 421838 51296 228536 118992 43200 193302 70367 174935
is_linear=0
shrinkage=0.05


Tree=15
num_leaves=10
num_cat=0
split_feature=562 636 533 180 36 375 636 462 603
split_gain=1366.78 511.473 318.565 252.698 188.775 174.162 174.011 122.621 113.977
threshold=0.91519500000000009 0.47356500000000007 0.98715500000000012 0.44539500000000004 0.51044500000000015 0.62983000000000011 0.13571500000000003 0.96920000000000017 0.96538000000000002
decision_type=2 2 2 2 2 2 2 2 2
left_child=1 6 8 5 -5 -3 -1 -6 -2
right_child=2 3 -4 4 7 -7 -8 -9 -10
leaf_value=-0.026116133424047106 0.015139242009375413 0.0037820912707319542 0.053380919012312317 -0.014065102305999229 -0.0017727181518169509 0.020947008327043527 -0.009140828656933957 0.021181754012328229 0.037521632653093107
leaf_weight=1756.7521093379473 3028.1469777808525 8901.9216904984787 842.80575614236295 3374.9443381110323 5726.3749850937165 1771.9353787177242 10733.468891400553 647.59004917135462 700.32253415137529
leaf_count=36551 27486 71373 5768 73675 86691 13167 145093 7542 5788
internal_value=0 -0.0035582 0.0256189 0.00131625 -0.00450339 0.00663159 -0.0115284 0.000559439 0.0193434
internal_weight=0 32913 4571.28 20422.8 9748.91 10673.9 12490.2 6373.97 3728.47
internal_count=473134 434092 39042 252448 167908 84540 181644 94233 33274
is_linear=0
shrinkage=0.05


Tree=16
num_leaves=10
num_cat=0
split_feature=409 636 99 506 676 36 150 7 7
split_gain=1260.46 465.28 414.177 280.173 218.92 217.163 146.737 137.792 107.658
threshold=0.87481500000000012 0.32309500000000008 0.97317500000000001 0.45361500000000005 0.66365500000000011 0.54119500000000009 0.82967500000000005 0.65794000000000008 0.66507000000000016
decision_type=2 2 2 2 2 2 2 2 2
left_child=1 -1 -2 4 7 -5 -7 -3 -6
right_child=2 3 -4 5 8 6 -8 -9 -10
leaf_value=-0.016037601445219728 0.013398671289134925 -0.0042376696947008735 0.0437921990470026 -0.017394784443493138 0.0086222716248695683 -0.007092426349771995 0.0094033539536841036 0.0077935571788470236 0.027498047463078053
leaf_weight=6454.4338021668955 4598.3962575308979 7177.0192558304407 1482.182885392569 3536.3792788896826 2872.1001844118582 4271.9018230275251 1969.7566200082656 3560.4159031496383 1024.9847199218348
leaf_count=105669 46885 71195 10833 83954 26945 67433 27943 25907 6370
internal_value=0 -0.00409889 0.0208073 -0.000942417 0.00343596 -0.00749541 -0.00188665 -0.000248247 0.0135868
internal_weight=0 30867 6080.58 24412.6 14634.5 9778.04 6241.66 10737.4 3897.08
internal_count=473134 415416 57718 309747 130417 179330 95376 97102 33315
is_linear=0
shrinkage=0.05


Tree=17
num_leaves=10
num_cat=0
split_feature=99 329 260 153 7 620 26 151 375
split_gain=1162.25 451.392 349.914 197.62 193.311 149.465 140.809 118.343 115.585
threshold=0.88912500000000005 0.39861000000000008 0.9653400000000002 0.35616000000000009 0.64392000000000016 0.60238500000000006 0.25984000000000007 0.73282000000000014 0.96687500000000004
decision_type=2 2 2 2 2 2 2 2 2
left_child=1 3 7 -1 5 -3 -7 -2 -9
right_child=2 4 -4 -5 -6 6 -8 8 -10
leaf_value=-0.01812479581535378 -0.042642177760631221 -5.1964329847581329e-05 0.041109361095773012 -0.0050900578722402777 0.0073523966635176304 0.0019952109099087632 -0.022375322167124539 0.011631464164681617 0.040126431600063003
leaf_weight=5780.9970728021581 92.678082297556102 9297.1820608588168 1562.4485138636082 5850.6799418672454 7254.8800706283655 922.94022649922408 1656.4982936528977 3503.5263824043795 396.11980752181262
leaf_count=90580 1939 102154 12858 84981 85706 16968 40209 34126 3613
internal_value=0 -0.00380082 0.0210495 -0.0115684 0.000921747 -0.00300644 -0.0136554 0.0131988 0.0145259
internal_weight=0 30763.2 5554.77 11631.7 19131.5 11876.6 2579.44 3992.32 3899.65
internal_count=473134 420598 52536 175561 245037 159331 57177 39678 37739
is_linear=0
shrinkage=0.05


Tree=18
num_leaves=10
num_cat=0
split_feature=561 636 7 613 501 636 99 180 462
split_gain=1089.4 526.472 223.39 190.691 169.274 166.765 144.963 133.797 129.147
threshold=0.94836000000000009 0.47356500000000007 0.64174000000000009 0.75902000000000014 0.56280000000000008 0.23613500000000001 0.98488500000000012 0.46846000000000004 0.96920000000000017
decision_type=2 2 2 2 2 2 2 2 2
left_child=1 5 4 -2 -3 -1 -5 -4 -6
right_child=3 2 7 6 8 -7 -8 -9 -10
leaf_value=-0.019367540679609913 -0.035392735260054424 0.0012737973192160571 0.014729486301284371 0.025060485201666222 -0.015206329377458652 -0.0067710568726666066 0.050307048727372961 0.0028450672720986975 0.027223709917117783
leaf_weight=3831.0592003199272 104.47804673202336 8240.5287672327831 4125.392856430728 1695.6307823774405 2846.8679498312413 8363.8922671538312 855.42692613648251 5560.2181962213945 191.39753483422101
leaf_count=69778 2028 85836 28272 16544 64009 113537 6346 84473 2311
internal_value=0 -0.00246777 0.00233734 0.0308147 -0.00244557 -0.0107283 0.0335262 0.007907 -0.0125334
internal_weight=0 33159.4 20964.4 2655.54 11278.8 12195 2551.06 9685.61 3038.27
internal_count=473134 448216 264901 24918 152156 183315 22890 112745 66320
is_linear=0
shrinkage=0.05


Tree=19
num_leaves=10
num_cat=0
split_feature=188 191 533 380 646 636 613 153 24
split_gain=1019.59 465.728 283.57 192.145 183.358 148.505 133.996 132.751 111.112
threshold=0.88618500000000011 0.43828500000000009 0.97507500000000003 0.87796500000000011 0.68439000000000016 0.77939500000000017 0.75805500000000003 0.30304000000000003 1.0000000180025095e-35
decision_type=2 2 2 2 2 2 2 2 2
left_child=1 7 6 4 5 -3 -2 8 -1
right_child=2 3 -4 -5 -6 -7 -8 -9 -10
leaf_value=-0.020561298794352218 -0.030159398528325155 -0.00034316011338587612 0.041454544419993994 0.014102905304615608 -0.009418591250891846 0.01328342382312149 0.016115252871687923 -0.0064325973863424372 0.0010140624879084168
leaf_weight=4450.7240006985376 163.80818300787359 10418.500630883442 1272.2342438921332 2480.9759214938385 4533.4379520586226 2474.2854045669083 3477.7729096978437 5380.8779075609054 689.13347830716521
leaf_count=81915 3616 99594 9825 30650 81973 20430 41400 93302 10429
internal_value=0 -0.00341281 0.0211332 0.00108414 -0.000769348 0.00227195 0.0140337 -0.0119219 -0.0176686
internal_weight=0 30427.9 4913.82 19907.2 17426.2 12892.8 3641.58 10520.7 5139.86
internal_count=473134 418293 54841 232647 201997 120024 45016 185646 92344
is_linear=0
shrinkage=0.05


Tree=20
num_leaves=10
num_cat=0
split_feature=99 636 7 153 99 384 380 151 646
split_gain=954.746 465.9 237.635 146.405 141.422 122.537 115.012 104.051 96.9446
threshold=0.95367000000000013 0.39448500000000003 0.64392000000000016 0.40816000000000002 0.9865250000000001 0.97255500000000017 0.74049000000000009 0.74943000000000015 0.66446000000000016
decision_type=2 2 2 2 2 2 2 2 2
left_child=1 5 3 -3 7 -1 -4 -2 -5
right_child=4 2 6 8 -6 -7 -8 -9 -10
leaf_value=-0.010780195169102065 -0.027009944504932815 -0.012617749479779887 0.0027012759023191811 0.0029536720095496263 0.047401839572140281 -0.038847004530241508 0.01330846994956447 0.024594230525111047 -0.0083511035027227769
leaf_weight=8521.4867107659229 103.48704324569553 3153.7992556858226 6568.1047948207706 6843.2094050374581 753.89989210525528 407.47991064097732 4183.0980482161976 1741.4223784375936 2623.484193506185
leaf_count=133456 2052 50136 78071 72023 5974 10169 52720 13738 54795
internal_value=0 -0.00234577 0.00136587 -0.00328753 0.0291557 -0.012061 0.00682834 0.0216996 -0.000179196
internal_weight=0 32300.7 23371.7 12620.5 2598.81 8928.97 10751.2 1844.91 9466.69
internal_count=473134 451370 307745 176954 21764 143625 130791 15790 126818
is_linear=0
shrinkage=0.05


Tree=21
num_leaves=10
num_cat=0
split_feature=409 636 561 501 100 603 380 413 36
split_gain=893.04 395.645 290.856 205.541 161.54 148.976 140.623 102.008 98.5228
threshold=0.87384500000000009 0.4668750000000001 0.97892500000000016 0.44883000000000001 0.45384000000000008 0.94919500000000012 0.92485000000000006 0.5762250000000001 0.6022550000000001
decision_type=2 2 2 2 2 2 2 2 2
left_child=1 4 -2 6 -1 7 8 -5 -3
right_child=2 3 -4 5 -6 -7 -8 -9 -10
leaf_value=-0.017393498426528344 0.013098901988974444 5.3706220930757023e-05 0.0435794013567442 -0.017512532990537375 -0.0053134463884148171 0.018409182124372848 0.030785714640922814 -0.0036568697606563327 0.010391711814383604
leaf_weight=5197.1034521193942 4732.1644622078165 5482.4916205523768 937.75866742152721 1768.3783366237767 5919.7184956940473 622.24789601610973 533.41668083472177 5338.7610086646164 3976.015078006254
leaf_count=89506 50239 51483 7903 35024 86506 9018 3339 109414 30702
internal_value=0 -0.00356657 0.0181401 0.00107197 -0.0109609 -0.00505045 0.00580806 -0.0071044 0.00439943
internal_weight=0 28838.1 5669.92 17721.3 11116.8 7729.39 9991.92 7107.14 9458.51
internal_count=473134 414992 58142 238980 176012 153456 85524 144438 82185
is_linear=0
shrinkage=0.05


Tree=22
num_leaves=10
num_cat=0
split_feature=460 99 636 646 409 676 413 7 380
split_gain=842.318 354.988 315.437 161.594 149.301 140.925 103.947 100.794 86.5809
threshold=0.78867500000000013 0.95451500000000011 0.23613500000000001 0.5125900000000001 0.8377150000000001 0.50121500000000008 0.58592500000000014 0.64492500000000008 0.51961500000000005
decision_type=2 2 2 2 2 2 2 2 2
left_child=2 8 -1 5 6 7 -5 -4 -2
right_child=1 -3 3 4 -6 -7 -8 -9 -10
leaf_value=-0.018188776726448971 -0.00033235691845521213 0.033536045786783555 -0.0066359595007119982 -0.024742379346165536 0.0041643006210449829 0.0070855172780370547 -0.0086351387777093436 0.0042034302798675208 0.012038469403828458
leaf_weight=3633.6554150683805 2007.8132612202317 1767.5894539793953 6398.3449660895276 1354.9507523619104 1718.8506080412772 5406.5108643990825 3841.2310561524937 3226.0587235782295 4785.348719388654
leaf_count=69193 27579 15007 77152 29222 21246 54289 83248 34102 62096
internal_value=0 0.0135758 -0.00454342 -0.00228412 -0.00860971 0.000625995 -0.0128352 -0.00300264 0.0083821
internal_weight=0 8560.75 25579.6 21945.9 6915.03 15030.9 5196.18 9624.4 6793.16
internal_count=473134 104682 368452 299259 133716 165543 112470 111254 89675
is_linear=0
shrinkage=0.05


Tree=23
num_leaves=10
num_cat=0
split_feature=443 380 561 100 426 20 462 646 457
split_gain=784.518 367.675 256.22 224.436 163.473 119.072 102.783 98.663 90.1509
threshold=0.88884000000000019 0.47607000000000005 0.95734500000000011 0.45384000000000008 0.79933000000000021 0.7226800000000001 0.96920000000000017 0.67762500000000014 0.16933000000000001
decision_type=2 2 2 2 2 2 2 2 2
left_child=1 3 -2 5 6 -1 8 -5 -3
right_child=2 4 -4 7 -6 -7 -8 -9 -10
leaf_value=-0.010528364284757445 0.010128620471757901 -0.03179048439170095 0.033926860933474516 -0.0010742703966974527 0.0094313583854085479 -0.025767946236949099 0.01694859689905109 -0.015828027334232921 -0.0020119546614547289
leaf_weight=2719.7538246401818 3356.982658019755 260.37875839974731 1705.6526189194992 5706.9016674556187 4817.9725304812891 2424.2431709914235 707.07019659457728 1413.8949442537269 10637.962900707731
leaf_count=44390 35292 5521 15735 71691 49063 46806 7377 31908 165351
internal_value=0 -0.00320233 0.0181465 -0.00975249 0.00168925 -0.0177104 -0.00152488 -0.00400375 -0.00272341
internal_weight=0 28688.2 5062.64 12264.8 16423.4 5144 11605.4 7120.8 10898.3
internal_count=473134 422107 51027 194795 227312 91196 178249 103599 170872
is_linear=0
shrinkage=0.05


Tree=24
num_leaves=10
num_cat=0
split_feature=460 99 153 636 501 409 375 7 7
split_gain=751.016 300.512 287.687 134.208 131.028 115.936 114.079 95.1203 82.3668
threshold=0.79522500000000018 0.97317500000000001 0.35616000000000009 0.14275500000000002 0.50956500000000016 0.80238500000000013 0.35227500000000006 0.67013000000000011 0.72936500000000015
decision_type=2 2 2 2 2 2 2 2 2
left_child=2 8 3 -1 6 -6 -4 -5 -2
right_child=1 -3 4 7 5 -7 -8 -9 -10
leaf_value=-0.025821756711869655 0.0028248011246050095 0.038039673062842477 -0.0025002097487164436 -0.013439474176434766 -0.012637363721550405 0.0044503320750848892 0.0074692303950989764 -0.0021561197656835697 0.01382014667051407
leaf_weight=1367.0280971439788 2817.2996744026896 1057.1707439105958 5602.6114339473424 4568.3041771286516 3206.1792619482731 1437.7688128759619 5882.1430779517977 3159.740252969088 4307.221814292483
leaf_count=31428 41846 9505 67699 72763 75164 20018 61527 43163 50021
internal_value=0 0.0131634 -0.00426975 -0.0113806 -0.000259892 -0.007347 0.00260584 -0.00882609 0.00947218
internal_weight=0 8181.69 25223.8 9095.07 16128.7 4643.95 11484.8 7728.04 7124.52
internal_count=473134 101372 371762 147354 224408 95182 129226 115926 91867
is_linear=0
shrinkage=0.05


Tree=25
num_leaves=10
num_cat=0
split_feature=188 426 260 380 36 462 646 636 534
split_gain=690.256 379.869 167.408 148.079 141.772 105.972 101.376 93.8146 83.1119
threshold=0.91512500000000008 0.51649500000000015 0.94905500000000009 0.84764000000000006 0.5374000000000001 0.92853500000000011 0.69830500000000006 0.77939500000000017 0.14266000000000004
decision_type=2 2 2 2 2 2 2 2 2
left_child=1 4 -2 6 5 8 7 -3 -1
right_child=2 3 -4 -5 -6 -7 -8 -9 -10
leaf_value=-0.029897233904708692 0.011319122175441851 0.00034377418192502 0.033449530990799434 0.01246751821498885 -0.003648001391753019 -0.045835639897667688 -0.0068148804380091452 0.012091214090442087 -0.010932365525635798
leaf_weight=644.92789765878115 1929.5810194546357 7992.4279590710066 1533.8378356765024 3024.2499697948806 6270.1509560329141 254.41589426825522 3711.5761077067582 2158.493650515331 5542.1004379865481
leaf_count=15515 26426 77831 14823 37367 98791 7425 70378 18693 105885
internal_value=0 -0.00247133 0.02112 0.00244318 -0.00900002 -0.0142097 0.000256263 0.00284175 -0.0129092
internal_weight=0 29598.3 3463.42 16886.7 12711.6 6441.44 13862.5 10150.9 6187.03
internal_count=473134 431885 41249 204269 227616 128825 166902 96524 121400
is_linear=0
shrinkage=0.05


Tree=26
num_leaves=10
num_cat=0
split_feature=460 99 636 36 501 258 380 636 520
split_gain=659.05 271.199 270.136 140.472 137.698 78.322 91.5056 77.6093 71.1943
threshold=0.78867500000000013 0.96405500000000011 0.23613500000000001 0.54119500000000009 0.66238000000000008 1.0000000180025095e-35 0.8956550000000002 0.66525500000000004 0.84420000000000017
decision_type=2 2 2 2 2 2 2 2 2
left_child=2 5 -1 4 7 -2 -7 -4 -5
right_child=1 -3 3 8 -6 6 -8 -9 -10
leaf_value=-0.017089184967248844 -0.010839628919753789 0.032599810584010257 -0.0073402916016749283 0.00032197232694534017 -0.020454221667432854 0.0067789733706171132 0.02200167430104065 0.0025869664477680587 0.012055504296931762
leaf_weight=3451.9962203898467 502.04483118699864 1360.275058040861 5598.5706434535678 9431.4234553850838 1459.5413011525234 5204.392969174427 1218.2893076806795 3036.6163800916984 1498.1427731912117
leaf_count=69193 7828 12423 78812 122007 41843 68751 15680 38518 18079
internal_value=0 0.0121892 -0.00412593 -0.00199749 -0.00625012 0.0081798 0.0096665 -0.00384931 0.00193032
internal_weight=0 8285 24476.3 21024.3 10094.7 6924.73 6422.68 8635.19 10929.6
internal_count=473134 104682 368452 299259 159173 92259 84431 117330 140086
is_linear=0
shrinkage=0.05


Tree=27
num_leaves=10
num_cat=0
split_feature=443 636 561 432 100 380 125 36 636
split_gain=622.064 337.871 210.5 148.778 127.34 95.1797 82.7502 73.0119 72.0666
threshold=0.88114500000000018 0.47356500000000007 0.97892500000000016 0.52274500000000013 0.45384000000000008 0.63029500000000016 0.43605000000000005 0.73631500000000016 0.66851500000000008
decision_type=2 2 2 2 2 2 2 2 2
left_child=1 4 -2 5 6 -3 -1 -7 -5
right_child=2 3 -4 8 -6 7 -8 -9 -10
leaf_value=-0.020014725942194306 0.011546930533674726 -0.009794138605550071 0.03898860577310484 0.0012994704748021488 -0.0049174071314391325 -0.0035325671047176754 -0.0057206834834681109 0.01030660640640859 0.010241022352224537
leaf_weight=3464.3306472039549 4247.5893545972649 3454.4563049378339 836.44591634208336 4444.7997114232276 5873.3274846703862 2647.7645197399543 1430.6376648828737 1488.9996617378201 4570.7669790360378
leaf_count=65883 46356 57145 8159 53284 88879 48468 25224 22263 57473
internal_value=0 -0.00298295 0.0160617 0.00149005 -0.00988117 -0.00366743 -0.015837 0.00144875 0.00583271
internal_weight=0 27375.1 5084.04 16606.8 10768.3 7591.22 4894.97 4136.76 9015.57
internal_count=473134 418619 54515 238633 179986 127876 91107 70731 110757
is_linear=0
shrinkage=0.05


Tree=28
num_leaves=10
num_cat=0
split_feature=460 153 99 501 636 375 258 125 613
split_gain=585.328 257.751 244.683 114.702 108.233 103.386 77.0625 85.3943 76.9274
threshold=0.77229500000000006 0.35616000000000009 0.95451500000000011 0.60969000000000018 0.14275500000000002 0.35227500000000006 1.0000000180025095e-35 0.5344000000000001 0.75605500000000003
decision_type=2 2 2 2 2 2 2 2 2
left_child=1 4 6 5 -1 -3 -2 -8 -4
right_child=2 3 8 -5 -6 -7 7 -9 -10
leaf_value=-0.024445646827754006 -0.011993832702783902 -0.0031336238754531912 -0.036012621065361593 -0.0094116865786436129 -0.0087103832978005277 0.0060174274386745573 0.0028590422795871438 0.014324131526027959 0.030276351928491371
leaf_weight=1293.6861380930059 493.86878642532974 5682.4602909455425 44.995035564526916 2771.2576119076402 7038.6380185675225 6756.0490768915624 3304.5792183270678 3193.7273591590347 1602.4903482701629
leaf_count=31359 8287 73095 946 64269 111066 80786 37050 51637 14639
internal_value=0 -0.00408499 0.0111311 -0.000212683 -0.0111535 0.00183682 0.00704672 0.0084938 0.0284659
internal_weight=0 23542.1 8639.66 15209.8 8332.32 12438.5 6992.18 6498.31 1647.49
internal_count=473134 360575 112559 218150 142425 153881 96974 88687 15585
is_linear=0
shrinkage=0.05


Tree=29
num_leaves=10
num_cat=0
split_feature=7 640 443 417 636 462 392 520 561
split_gain=566.896 297.634 287.934 135.294 111.78 103.02 128.4 102.995 87.9645
threshold=0.73228000000000015 0.37665500000000002 0.93557500000000016 0.97687000000000013 0.6007450000000002 0.96920000000000017 0.73809500000000006 0.35570500000000005 0.98434500000000014
decision_type=2 2 2 2 2 2 2 2 2
left_child=1 7 4 5 -2 6 -3 -1 -4
right_child=2 3 8 -5 -6 -7 -8 -9 -10
leaf_value=-0.018946516777145928 -0.00097506807085967354 0.0016024236741947536 0.019408157025444205 -0.030910624526279393 0.010430631819327206 0.022199274194434748 -0.012745365613772748 -0.0071964857530067983 0.042166948527477717
leaf_weight=3570.717208418122 4061.9084874772234 10848.888090203283 1730.4669683305547 353.41226624604315 4559.2938705012202 522.30228122649714 1821.0679565541213 3904.1815544277197 562.60439829900861
leaf_count=67458 57846 150167 18063 6274 61290 6276 43062 57139 5559
internal_value=0 -0.00480026 0.00924516 -0.000380574 0.0050568 0.000437307 -0.000459801 -0.0128094 0.024992
internal_weight=0 21020.6 10914.3 13545.7 8621.2 13192.3 12670 7474.9 2293.07
internal_count=473134 330376 142758 205779 119136 199505 193229 124597 23622
is_linear=0
shrinkage=0.05


Tree=30
num_leaves=10
num_cat=0
split_feature=617 636 426 533 380 462 501 7 384
split_gain=529.459 321.992 161.758 156.814 112.597 95.9026 104.068 93.5024 88.6402
threshold=0.87085000000000001 0.36313500000000004 0.79933000000000021 0.98715500000000012 0.8956550000000002 0.96920000000000017 0.67559000000000013 0.78078500000000017 0.97255500000000017
decision_type=2 2 2 2 2 2 2 2 2
left_child=1 8 4 -2 5 6 -3 -4 -1
right_child=3 2 7 -5 -6 -7 -8 -9 -10
leaf_value=-0.010626284322117268 0.012357457189125074 -0.0028962123871691114 0.0039033957854095534 0.040903413450639768 0.0098569453768047443 0.01401676679716698 -0.014735662676258294 0.018517578702919989 -0.036893113911731105
leaf_weight=6649.611415716965 3999.0523162088357 8814.2778619849996 5320.1727844863199 546.89308109832928 1597.9477488959674 675.13729186542332 2351.1691035074764 1377.9797612745315 337.48598798236344
leaf_count=114978 54423 119001 61236 5625 26701 7489 61629 12033 10019
internal_value=0 -0.00264668 0.00056234 0.0157916 -0.00260147 -0.0042828 -0.00538931 0.0069099 -0.011895
internal_weight=0 27123.8 20136.7 4545.95 13438.5 11840.6 11165.4 6698.15 6987.1
internal_count=473134 413086 288089 60048 214820 188119 180630 73269 124997
is_linear=0
shrinkage=0.05


Tree=31
num_leaves=10
num_cat=0
split_feature=460 636 561 36 501 613 417 432 153
split_gain=500.609 232.493 197.009 129.748 94.3989 80.2061 67.0396 64.0115 62.9881
threshold=0.7989750000000001 0.26271500000000009 0.94836000000000009 0.5374000000000001 0.69529000000000007 0.75902000000000014 0.97940500000000019 0.71652500000000019 0.35616000000000009
decision_type=2 2 2 2 2 2 2 2 2
left_child=1 -1 -2 4 6 -4 8 -5 -3
right_child=2 3 5 7 -6 -7 -8 -9 -10
leaf_value=-0.014475566909026986 0.0070909358792019947 -0.011041939654434861 -0.030207859147014984 -0.00048904919118276003 -0.019025387802955408 0.02934167721374957 -0.033157852968269695 0.0076268325657242748 -0.000543539990830827
leaf_weight=4058.6753014619753 6092.7089122374309 1874.3157176568639 58.779642610810697 6661.4662473867938 1155.3986846110784 1487.0330880722031 189.19147430965677 3824.3651870226604 6009.9657484287745
leaf_count=80064 82419 29649 1330 97643 36739 15912 3188 42191 83999
internal_value=0 -0.00357793 0.0111356 -0.00133443 -0.00565809 0.0270773 -0.00374509 0.00247095 -0.00303931
internal_weight=0 23773.4 7638.52 19714.7 9228.87 1545.81 8073.47 10485.8 7884.28
internal_count=473134 373473 99661 293409 153575 17242 116836 139834 113648
is_linear=0
shrinkage=0.05


Tree=32
num_leaves=10
num_cat=0
split_feature=409 636 99 457 603 432 176 380 594
split_gain=479.886 301.171 147.463 128.104 125.647 117.41 108.509 90.87 73.7568
threshold=0.89313500000000012 0.47356500000000007 0.98406000000000005 0.16882000000000003 0.97858500000000015 0.52274500000000013 0.53989000000000009 0.74187000000000014 0.052015500000000006
decision_type=2 2 2 2 2 2 2 2 2
left_child=1 6 -2 -3 5 7 8 -5 -1
right_child=2 3 -4 4 -6 -7 -8 -9 -10
leaf_value=-0.027366713911992687 0.011566600380240872 -0.028643716409088329 0.038015328286223879 -0.0075363641311091889 0.036071383133722656 0.0056689706929025198 -0.003013533691562808 0.0041568692550414304 -0.011257857710153403
leaf_weight=819.03867223672569 3844.9151031023357 340.24193446617573 610.71189509006217 4312.4825416220119 271.72176518035121 8670.2552250438603 4249.7202216577134 2702.753840548452 5365.985662948573
leaf_count=18288 42867 6328 6430 76348 2959 109254 60408 48021 102231
internal_value=0 -0.00253212 0.0151918 0.00171447 0.00236178 0.00177782 -0.00916463 -0.00303132 -0.013391
internal_weight=0 26732.2 4455.63 16297.5 15957.2 15685.5 10434.7 7015.24 6185.02
internal_count=473134 423837 49297 242910 236582 233623 180927 124369 120519
is_linear=0
shrinkage=0.05


Tree=33
num_leaves=10
num_cat=0
split_feature=7 640 443 417 676 636 520 380 188
split_gain=458.848 263.024 232.479 110.052 102.977 91.1909 89.8309 74.7995 67.9298
threshold=0.73694000000000004 0.37665500000000002 0.94098500000000007 0.97687000000000013 0.82122500000000009 0.66525500000000004 0.35570500000000005 0.44777000000000006 0.98278500000000013
decision_type=2 2 2 2 2 2 2 2 2
left_child=1 6 4 5 7 -3 -1 -2 -4
right_child=2 3 8 -5 -6 -7 -8 -9 -10
leaf_value=-0.017939723933807179 -0.0060928680383609797 -0.0031680792607186475 0.018488139236904049 -0.029960460365488179 0.015885516334427117 0.0052458855557688706 -0.006740073003574769 0.0055247353630748586 0.039617034207649136
leaf_weight=3401.9399281194201 1959.5675038589397 7378.8678096061049 1485.069236604264 303.31957983761095 1705.2969101809431 5713.8829240012565 3779.6386394706788 4729.3482940397225 511.40274641662836
leaf_count=67856 32914 115572 16135 6302 20663 85588 57569 64916 5619
internal_value=0 -0.00432484 0.00856488 -0.00018588 0.0049175 0.000503908 -0.0120454 0.00212127 0.0239004
internal_weight=0 20577.6 10390.7 13396.1 8394.21 13092.8 7181.58 6688.92 1996.47
internal_count=473134 332887 140247 207462 118493 201160 125425 97830 21754
is_linear=0
shrinkage=0.05


Tree=34
num_leaves=10
num_cat=0
split_feature=460 676 99 375 646 7 375 462 7
split_gain=444.399 226.023 179.501 115.063 77.5663 74.7494 74.445 70.2935 83.899
threshold=0.75266500000000003 0.43909000000000004 0.95637500000000009 0.051452000000000005 0.67261000000000004 0.62337000000000009 0.28331500000000004 0.96920000000000017 0.86019500000000015
decision_type=2 2 2 2 2 2 2 2 2
left_child=1 3 7 -1 6 -5 -3 8 -2
right_child=2 4 -4 5 -6 -7 -8 -9 -10
leaf_value=-0.027945881606899488 0.0008031262179018046 -0.002531454723798733 0.02531969051112028 -0.011377616731460181 -0.0060698117180454439 -0.0022051109384973919 0.006877293609801014 0.021280727743796919 0.012884681835821624
leaf_weight=765.43502510059625 4490.6264275822323 3434.600205421797 1488.663353391923 5662.1774817738333 3004.2842138912529 3654.7984867002815 5420.1797432423336 704.81593337235972 2113.195613410091
leaf_count=18700 70760 46307 15552 99491 65989 59233 61291 7496 28315
internal_value=0 -0.00380676 0.00949449 -0.00931048 0.000872429 -0.00777949 0.00322782 0.00627113 0.00466917
internal_weight=0 21941.5 8797.3 10082.4 11859.1 9316.98 8854.78 7308.64 6603.82
internal_count=473134 351011 122123 177424 173587 158724 107598 106571 99075
is_linear=0
shrinkage=0.05


Tree=35
num_leaves=10
num_cat=0
split_feature=380 153 443 7 7 134 606 417 380
split_gain=434.615 220.721 163.097 110.472 102.94 77.4806 72.1125 70.386 68.8756
threshold=0.74049000000000009 0.40213000000000004 0.95068000000000008 0.62337000000000009 0.64062000000000008 0.16850000000000001 0.75322500000000014 0.9700200000000001 0.97183000000000008
decision_type=2 2 2 2 2 2 2 2 2
left_child=1 3 5 6 -3 -2 -1 8 -7
right_child=2 4 -4 -5 -6 7 -8 -9 -10
leaf_value=-0.018820106142308037 -0.025596673688678254 -0.003178186339411011 0.026774550044368378 -0.0040706395643172518 0.0059793856748668293 0.0069202706736371583 -0.0033567483215335885 -0.018030173924437443 0.024710698912492463
leaf_weight=3523.219301121193 181.63392280088738 8256.0016648191086 1160.3838278381154 3987.051617538149 4884.2080791620538 6713.7567668306292 959.21868798742071 261.67522571794689 592.01565911248326
leaf_count=74734 3898 127204 12850 60670 65655 101572 13283 4680 8588
internal_value=0 -0.00383122 0.00929255 -0.0101254 0.000225678 0.00667471 -0.015511 0.00744929 0.0083619
internal_weight=0 21609.7 8909.47 8469.49 13140.2 7749.08 4482.44 7567.45 7305.77
internal_count=473134 341546 131588 148687 192859 118738 88017 114840 110160
is_linear=0
shrinkage=0.05


Tree=36
num_leaves=10
num_cat=0
split_feature=636 603 445 432 443 380 7 432 258
split_gain=411.761 215.917 128.756 110.201 93.8401 77.6955 69.9954 69.0071 61.6377
threshold=0.56337500000000007 0.9157050000000001 0.19021000000000002 0.52274500000000013 0.95250000000000001 0.74187000000000014 0.92566500000000007 0.74055500000000019 1.0000000180025095e-35
decision_type=2 2 2 2 2 2 2 2 2
left_child=2 3 -1 5 7 -2 -3 -4 -8
right_child=1 6 4 -5 -6 -7 8 -9 -10
leaf_value=-0.016158807775670362 -0.0063711347220856036 0.013563940924446009 -0.0078460728301766487 0.0073104204727763595 0.020503073822861134 0.0046937548910208323 -0.013745687094917037 0.00023095673045934572 0.036510307865794921
leaf_weight=2642.5605583005818 3731.5952375386842 1636.8636615455616 6913.4665783093078 7221.4794283698138 380.1678856597282 2759.8822133037029 67.003672594204545 4282.484152015415 682.20283438917249
leaf_count=55193 67590 22237 120470 91999 4385 47309 1048 55558 7345
internal_value=0 0.00547614 -0.00620033 0.00306074 -0.00392704 -0.00166684 0.0193577 -0.00475659 0.0320158
internal_weight=0 16099 14218.7 13713 11576.1 6491.48 2386.07 11196 749.207
internal_count=473134 237528 235606 206898 180413 114899 30630 176028 8393
is_linear=0
shrinkage=0.05


Tree=37
num_leaves=10
num_cat=0
split_feature=375 409 349 36 501 329 7 443 555
split_gain=397.861 238.581 144.484 132.343 131.21 86.1327 66.2458 63.4658 61.4494
threshold=0.35227500000000006 0.96383500000000011 0.20765500000000001 0.51044500000000015 0.56280000000000008 0.47374000000000005 0.64062000000000008 0.80228500000000003 0.93702500000000011
decision_type=2 2 2 2 2 2 2 2 2
left_child=2 3 -1 4 6 -5 -2 -6 -7
right_child=1 -3 -4 5 7 8 -8 -9 -10
leaf_value=-0.020233904085712271 -0.00098426301281011363 0.023013449814133908 -0.0049897967508403685 -0.00021229864889718396 -0.016916292126423534 0.0077000116446021812 0.013537339179185971 0.00081730559622009136 0.022849502273279212
leaf_weight=1874.996691915323 3276.8721002466045 1571.1229899742175 9090.1189773325459 3587.2282854238292 1789.6042244254495 6465.1201397215482 1032.9182730605244 702.61022330308333 746.66891813091934
leaf_count=39901 46344 15931 128015 57575 59750 90948 10867 12660 11143
internal_value=0 0.00434465 -0.00759649 0.00267822 -0.0027847 0.00611916 0.0024961 -0.0119168 0.00926851
internal_weight=0 19172.1 10965.1 17601 6802 10799 4309.79 2492.21 7211.79
internal_count=473134 305218 167916 289287 129621 159666 57211 72410 102091
is_linear=0
shrinkage=0.05


Tree=38
num_leaves=10
num_cat=0
split_feature=380 676 409 7 36 134 7 282 473
split_gain=384.541 206.842 141.224 103.467 74.4017 70.6903 69.7258 63.9695 61.5806
threshold=0.74049000000000009 0.43909000000000004 0.96721500000000005 0.59202500000000013 0.51044500000000015 0.16850000000000001 0.75028500000000009 0.79658000000000018 0.23264500000000002
decision_type=2 2 2 2 2 2 2 2 2
left_child=1 3 5 8 -3 -2 -7 -6 -1
right_child=2 4 -4 -5 7 6 -8 -9 -10
leaf_value=-0.022347239307693889 -0.024850776947774003 -0.0040676486084190765 0.028148556060565679 -0.0034045135346276985 0.0014580827684304277 0.0036709508884514852 0.013411749798489764 0.013207278141419858 -0.010422656595252268
leaf_weight=1597.9700007582433 173.48393451608717 5077.4296606599819 850.98857452068478 3930.1436179643497 5697.9254339790787 4772.1111931973719 2987.1178687040228 1454.1622432447039 3357.4433881774894
leaf_count=32487 3940 87781 8725 64323 76567 76895 42028 19371 61017
internal_value=0 -0.00365727 0.00879169 -0.00946299 0.000560968 0.00671516 0.00742093 0.00384693 -0.014268
internal_weight=0 21115.1 8783.7 8885.56 12229.5 7932.71 7759.23 7152.09 4955.41
internal_count=473134 341546 131588 157827 183719 122863 118923 95938 93504
is_linear=0
shrinkage=0.05


Tree=39
num_leaves=10
num_cat=0
split_feature=636 603 676 7 329 488 501 99 462
split_gain=377.758 183.199 139.777 107.018 83.5499 72.5805 71.7212 68.1231 63.6353
threshold=0.6007450000000002 0.97539500000000012 0.43909000000000004 0.69280500000000012 0.39861000000000008 0.56519500000000011 0.56280000000000008 0.8418650000000002 0.96920000000000017
decision_type=2 2 2 2 2 2 2 2 2
left_child=2 3 4 6 -1 -5 -2 -7 -8
right_child=1 -3 -4 5 -6 7 8 -9 -10
leaf_value=-0.0156835310233184 0.0038563379263080555 0.0305736976410039 -0.0010188012766126093 0.015621096194155498 -0.0048284559397035109 -0.0033238722864831769 -0.0089326224208559606 0.011166148911304581 0.022533868827576485
leaf_weight=3772.8663435151102 5313.4087961944169 711.07949284370989 8245.8915919303836 2703.812411155086 3343.5820108026965 1493.1123454761691 2185.8181061916985 1775.9181719550397 173.41997476899996
leaf_count=77249 63658 7914 127524 25789 51314 32399 59340 25419 2528
internal_value=0 0.00583128 -0.0054495 0.00454193 -0.0105834 0.00956057 0.000635118 0.00454791 -0.00661962
internal_weight=0 14356.6 15362.3 13645.5 7116.45 5972.84 7672.65 3269.03 2359.24
internal_count=473134 217047 256087 209133 128563 83607 125526 57818 61868
is_linear=0
shrinkage=0.05


Tree=40
num_leaves=10
num_cat=0
split_feature=636 603 445 432 188 380 176 561 534
split_gain=361.427 178.651 118.171 96.6185 80.4272 70.7924 64.5229 63.4828 49.0587
threshold=0.56337500000000007 0.9157050000000001 0.19021000000000002 0.52274500000000013 0.93342500000000006 0.93009000000000008 0.53989000000000009 0.9836950000000001 0.12946500000000002
decision_type=2 2 2 2 2 2 2 2 2
left_child=2 3 8 5 6 -2 -4 -3 -1
right_child=1 7 4 -5 -6 -7 -8 -9 -10
leaf_value=-0.029782504739285551 -0.0035562134930742328 0.014510758497890165 -0.0082155138652191661 0.006987954994854462 0.01555975121212313 0.012427380767808248 -0.00046188912426677227 0.037485654024087489 -0.012198999235012782
leaf_weight=490.0056675253436 5477.7506640554057 1954.4766634672415 5753.9525691827002 7079.628456353239 518.53462994168513 793.04595791967586 5027.5675693997182 355.33206534665078 2082.8898036963656
leaf_count=14600 102010 26571 106056 91999 7577 12889 66780 4059 40593
internal_value=0 0.00520608 -0.00587679 0.00298474 -0.00367481 -0.00153482 -0.00459989 0.0180451 -0.0155478
internal_weight=0 15660.2 13873 13350.4 11300.1 6270.8 10781.5 2309.81 2572.9
internal_count=473134 237528 235606 206898 180413 114899 172836 30630 55193
is_linear=0
shrinkage=0.05


Tree=41
num_leaves=10
num_cat=0
split_feature=375 562 380 445 36 506 417 35 603
split_gain=351.605 216.648 117.253 116.1 84.4396 64.4754 64.2177 63.1776 61.9187
threshold=0.28331500000000004 0.94560000000000011 0.44995000000000002 0.065932000000000004 0.42467500000000008 0.65297500000000008 0.98475500000000016 0.16952500000000001 0.97858500000000015
decision_type=2 2 2 2 2 2 2 2 2
left_child=3 2 5 -1 6 -2 -4 -3 -9
right_child=1 7 4 -5 -6 -7 -8 8 -10
leaf_value=-0.030735582532319929 -0.00089843096707018584 -0.025889524280531692 -0.00042243072850129825 -0.0070436139899680734 0.0071442785721024292 -0.012714262781261068 -0.036965037054110202 0.015654467811971638 0.036623491118536876
leaf_weight=553.19323511654511 4193.7714515623229 76.919168998487294 3980.9703705782304 7923.6839591774624 8888.9837744013639 1593.1080300478498 123.96908625192009 1600.7524616259616 451.3059196206741
leaf_count=14997 66406 1401 74629 120927 130122 38951 2804 18062 4835
internal_value=0 0.0034823 0.00176873 -0.00858973 0.00440523 -0.00415129 -0.00152602 0.0185986 0.0202662
internal_weight=0 20909.8 18780.8 8476.88 12993.9 5786.88 4104.94 2128.98 2052.06
internal_count=473134 337210 312912 135924 207555 105357 77433 24298 22897
is_linear=0
shrinkage=0.05


Tree=42
num_leaves=10
num_cat=0
split_feature=375 409 457 636 126 462 676 676 491
split_gain=337.148 194.425 125.795 121.759 107.38 89.0122 81.3553 69.9767 68.9196
threshold=0.32815500000000003 0.96721500000000005 0.16882000000000003 0.28314500000000004 0.27770500000000004 0.96920000000000017 0.82374500000000006 0.37923000000000007 0.77131500000000008
decision_type=2 2 2 2 2 2 2 2 2
left_child=3 2 -2 7 -4 6 -6 -1 -7
right_child=1 -3 4 -5 5 8 -8 -9 -10
leaf_value=-0.02327222659757567 -0.026780696173814157 0.022103891137894391 -0.0034482577639273963 -0.0035912327714198787 0.0018066831072193141 0.011805306038527523 0.011036086361656525 -0.0086487367899500747 0.04295256106628257
leaf_weight=1514.9226354688872 360.52034401311539 1353.9241278639529 4668.9355231675436 6554.6383885743562 8856.0690299747221 601.66470774263144 3269.0731856025523 1778.451617292827 251.97990938089788
leaf_count=37144 7494 14500 79582 87381 157894 7265 46318 32187 3369
internal_value=0 0.00383099 0.00245717 -0.0075321 0.00305446 0.00539372 0.00429503 -0.0153754 0.0209994
internal_weight=0 19362.2 18008.2 9848.01 17647.7 12978.8 12125.1 3293.37 853.645
internal_count=473134 316422 301922 156712 294428 214846 204212 69331 10634
is_linear=0
shrinkage=0.05


Tree=43
num_leaves=10
num_cat=0
split_feature=636 603 676 380 246 375 443 462 7
split_gain=331.527 150.478 124.63 95.2287 92.4784 72.6347 55.0613 53.2394 54.7602
threshold=0.6007450000000002 0.97539500000000012 0.43909000000000004 0.93009000000000008 0.57266500000000009 0.051452000000000005 0.83989500000000017 0.96920000000000017 0.80659500000000006
decision_type=2 2 2 2 2 2 2 2 2
left_child=2 3 5 4 7 -1 -7 8 -2
right_child=1 -3 -4 -5 -6 6 -8 -9 -10
leaf_value=-0.025669090079277698 -0.0050890941763384132 0.028439906044953913 -0.00097170319082682264 0.016362951727930824 0.0079258817264472314 -0.0098827934196520448 0.006769889945389837 0.017570401328686213 0.0049606552376202893
leaf_weight=677.1354484136682 4455.189757580345 681.21434691175818 8109.4148212971922 1468.3791220413987 5137.2168222159089 5662.9406836052658 544.07538447692059 366.21060743322596 1948.2283846435603
leaf_count=18584 84559 7914 127524 21806 66437 102631 7348 5057 31274
internal_value=0 0.0055166 -0.0051718 0.00434909 0.00286751 -0.0101194 -0.0084231 -0.000971091 -0.00203148
internal_weight=0 14056.4 14993.6 13375.2 11906.8 6884.15 6207.02 6769.63 6403.42
internal_count=473134 217047 256087 209133 187327 128563 109979 120890 115833
is_linear=0
shrinkage=0.05


Tree=44
num_leaves=10
num_cat=0
split_feature=636 562 126 445 343 443 176 603 319
split_gain=320.679 161.484 102.382 90.6265 69.8658 64.6069 57.0719 47.045 46.7029
threshold=0.49423500000000004 0.94560000000000011 0.34394500000000006 0.10890000000000001 0.42979500000000009 0.85053500000000015 0.53989000000000009 0.96538000000000002 1.0000000180025095e-35
decision_type=2 2 2 2 2 2 2 2 2
left_child=3 2 -2 -1 -4 6 8 -3 -5
right_child=1 7 4 5 -6 -7 -8 -9 -10
leaf_value=-0.020233060856302835 -0.0033016513988703869 0.013162508055741715 0.0097557847483572928 0.00053445162191769597 0.0017075702163183615 0.008014436803314361 -0.0021719957612745164 0.030933737420860266 -0.012347458581088148
leaf_weight=1108.6395475348691 5082.1026898198761 1275.8802479675505 4859.085553509969 852.99541580118239 6058.9006897670333 850.68037179391831 4269.5758345485665 525.91250937292352 4017.1844919363793
leaf_count=29355 83492 14736 72919 11489 97360 11015 60593 5940 86235
internal_value=0 0.00415872 0.00256066 -0.0066702 0.00528945 -0.00516513 -0.00639182 0.0183496 -0.0100912
internal_weight=0 17801.9 16000.1 11099.1 10918 9990.44 9139.76 1801.79 4870.18
internal_count=473134 274447 253771 198687 170279 169332 158317 20676 97724
is_linear=0
shrinkage=0.05


Tree=45
num_leaves=10
num_cat=0
split_feature=380 207 188 36 569 673 380 36 36
split_gain=314.814 169.282 113.023 88.0659 68.0109 58.6756 58.143 52.5017 49.7467
threshold=0.74049000000000009 0.57624000000000009 0.97569500000000009 0.54119500000000009 0.45555000000000007 0.6834650000000001 0.97915000000000008 0.39887 0.36848500000000006
decision_type=2 2 2 2 2 2 2 2 2
left_child=1 3 6 4 -1 -5 7 -2 -3
right_child=2 8 -4 5 -6 -7 -8 -9 -10
leaf_value=-0.017273016574386055 -0.0011166017892803198 -0.0050812897807392668 0.02971633740514916 -0.0061901720399291371 -0.0066436877558216263 0.003825797511729033 0.022142219889110804 0.0081261041373889859 0.0047282711543739416
leaf_weight=2633.0696806406195 2187.8893624342745 1657.5850134722423 564.26099677244201 4429.8007200079446 3512.3194390951539 2182.6932345456444 556.09585797856562 5160.1093039169791 5866.7562635560171
leaf_count=66492 40606 29725 7613 72598 58857 29770 7721 75648 84104
internal_value=0 -0.00338077 0.00809715 -0.0068888 -0.011198 -0.00288404 0.00655379 0.00537406 0.00256726
internal_weight=0 20282.2 8468.36 12757.9 6145.39 6612.49 7904.09 7348 7524.34
internal_count=473134 341546 131588 227717 125349 102368 123975 116254 113829
is_linear=0
shrinkage=0.05


Tree=46
num_leaves=10
num_cat=0
split_feature=460 636 99 432 125 384 380 258 7
split_gain=306.694 165.284 101.513 81.4025 61.7835 57.2425 55.4244 54.6456 45.6442
threshold=0.7989750000000001 0.36313500000000004 0.98488500000000012 0.70460500000000004 0.54379000000000011 0.97255500000000017 0.77105000000000012 1.0000000180025095e-35 0.89347500000000013
decision_type=2 2 2 2 2 2 2 2 2
left_child=1 5 4 6 8 -1 -3 -6 -2
right_child=2 3 -4 -5 7 -7 -8 -9 -10
leaf_value=-0.0087502722984108185 -0.00076195678242214166 -0.0054919743863926897 0.032528445211923593 0.004446492182800482 -0.009730347360641628 -0.031721382812054076 0.002821714231668185 0.014543226670435819 0.012551274014200156
leaf_weight=5934.0170303645718 2398.4449818904977 6704.5924067679443 436.81329174572602 5939.3544347410207 251.94212003983557 284.1915288856253 2859.8288994922186 2909.002781597781 880.03827940439805
leaf_count=113542 30112 122373 5642 75482 5028 10049 52027 48865 10014
internal_value=0 -0.00291326 0.00920296 -0.000151095 0.00762069 -0.00980012 -0.00300612 0.0126085 0.00281169
internal_weight=0 21722 6876.24 15503.8 6439.43 6218.21 9564.42 3160.94 3278.48
internal_count=473134 373473 99661 249882 94019 123591 174400 53893 40126
is_linear=0
shrinkage=0.05


Tree=47
num_leaves=10
num_cat=0
split_feature=375 409 501 636 457 375 375 99 413
split_gain=293.447 159.043 117.538 101.971 96.5568 94.6008 79.7315 75.5772 66.5866
threshold=0.32815500000000003 0.89206000000000019 0.47777500000000006 0.28314500000000004 0.18398500000000004 0.8701850000000001 0.71791500000000019 0.98301500000000008 0.58592500000000014
decision_type=2 2 2 2 2 2 2 2 2
left_child=3 2 6 -1 -4 8 -2 -3 -6
right_child=1 7 4 -5 5 -7 -8 -9 -10
leaf_value=-0.014443334662533253 0.0038272149076330622 0.0099570205057319238 -0.03381479056537439 -0.0034901597034002504 -0.014760111901805643 0.0077907045319609656 0.019817045111110831 0.030529309364994168 -0.0021147013057552901
leaf_weight=3181.7804098323686 6742.473640832206 3288.7999355727807 248.20937804761343 6397.0240088835126 1408.6773680074257 1811.2481465954334 881.55107008933555 516.56416296027601 3988.7376826101099
leaf_count=69331 76854 40495 7740 87381 35492 40546 8368 6739 100188
internal_value=0 0.00361544 0.00131061 -0.00712846 -0.00315273 -0.00209697 0.00567609 0.0127496 -0.00541504
internal_weight=0 18886.3 15080.9 9578.8 7456.87 7208.66 7624.02 3805.36 5397.42
internal_count=473134 316422 269188 156712 183966 176226 85222 47234 135680
is_linear=0
shrinkage=0.05


Tree=48
num_leaves=10
num_cat=0
split_feature=636 7 636 603 417 126 380 443 36
split_gain=283.943 134.496 92.6428 87.1781 70.1553 68.2586 60.6196 60.4509 45.7561
threshold=0.56337500000000007 0.69147500000000017 0.19646500000000003 0.98209500000000005 0.92227500000000007 0.43628000000000006 0.83643000000000012 0.96269500000000019 0.5374000000000001
decision_type=2 2 2 2 2 2 2 2 2
left_child=2 4 -1 6 5 -2 -3 8 -4
right_child=1 3 7 -5 -6 -7 -8 -9 -10
leaf_value=-0.01444797527643582 -0.0032733181160897575 0.0052013135127873082 -0.0075773465629502676 0.030411445088635938 -0.014839484822775051 0.0062743060069278813 0.015947508628651502 0.020659245237531335 -0.0010030380232246307
leaf_weight=2306.9721982292831 3535.6419733572984 4524.7502241941402 4857.7450138042332 480.14060482475907 693.43485139217228 3978.4671830969746 1848.4436200511409 254.55301393102854 5814.4218659801991
leaf_count=55427 59684 66257 91680 5376 12817 66430 26964 3355 85144
internal_value=0 0.00469515 -0.00534341 0.00986593 0.000377534 0.00178183 0.00831808 -0.00342116 -0.00399552
internal_weight=0 15060.9 13233.7 6853.33 8207.54 7514.11 6373.19 10926.7 10672.2
internal_count=473134 237528 235606 98597 138931 126114 93221 180179 176824
is_linear=0
shrinkage=0.05


Tree=49
num_leaves=10
num_cat=0
split_feature=636 603 676 126 343 636 7 450 7
split_gain=275.153 121.273 108.414 70.7586 67.5286 66.207 49.291 50.6682 40.8386
threshold=0.6007450000000002 0.91406500000000013 0.50121500000000008 0.20991500000000005 0.39190500000000006 0.19646500000000003 0.92566500000000007 0.65399000000000007 0.65246500000000007
decision_type=2 2 2 2 2 2 2 2 2
left_child=2 3 5 -2 -5 -1 7 -3 -7
right_child=1 6 -4 4 -6 8 -8 -9 -10
leaf_value=-0.016234200326894554 -0.0049701535341249402 0.016344794730676057 0.001102538416326455 0.010103237959632277 0.0014789988831688259 -0.0088310154779603686 0.028162336935835936 -0.0059155944324963345 -0.0012888357457215695
leaf_weight=1926.8661067493376 2197.411001548986 1114.862405373482 5064.7561613490107 3832.8122200889629 5565.9484161471773 4531.696338851063 612.59871987230144 331.68079650402069 2971.8082890304504
leaf_count=48413 38076 15912 86235 58877 91085 77173 7760 5337 44266
internal_value=0 0.00509301 -0.00479794 0.00310744 0.00499596 -0.0079669 0.0162749 0.0112407 -0.00584389
internal_weight=0 13655.3 14495.1 11596.2 9398.76 9430.37 2059.14 1446.54 7503.5
internal_count=473134 217047 256087 188038 149962 169852 29009 21249 121439
is_linear=0
shrinkage=0.05


end of trees

feature_importances:
Column_636=44
Column_7=31
Column_99=28
Column_380=27
Column_36=23
Column_443=21
Column_646=21
Column_462=19
Column_375=16
Column_409=15
Column_501=12
Column_603=12
Column_426=11
Column_676=10
Column_561=9
Column_153=8
Column_188=8
Column_432=7
Column_460=7
Column_533=7
Column_417=6
Column_445=6
Column_457=6
Column_506=5
Column_562=5
Column_613=5
Column_100=4
Column_126=4
Column_258=4
Column_24=3
Column_125=3
Column_166=3
Column_176=3
Column_191=3
Column_260=3
Column_329=3
Column_384=3
Column_413=3
Column_520=3
Column_134=2
Column_151=2
Column_180=2
Column_304=2
Column_343=2
Column_349=2
Column_473=2
Column_534=2
Column_569=2
Column_640=2
Column_20=1
Column_26=1
Column_35=1
Column_150=1
Column_207=1
Column_246=1
Column_282=1
Column_303=1
Column_319=1
Column_392=1
Column_450=1
Column_488=1
Column_491=1
Column_555=1
Column_594=1
Column_606=1
Column_617=1
Column_620=1
Column_673=1

parameters:
[boosting: gbdt]
[objective: lambdarank]
[metric: ndcg]
[tree_learner: serial]
[device_type: cpu]
[data: ]
[valid: ]
[num_iterations: 50]
[learning_rate: 0.05]
[num_leaves: 10]
[num_threads: -1]
[deterministic: 0]
[force_col_wise: 0]
[force_row_wise: 0]
[histogram_pool_size: -1]
[max_depth: -1]
[min_data_in_leaf: 20]
[min_sum_hessian_in_leaf: 0.001]
[bagging_fraction: 1]
[pos_bagging_fraction: 1]
[neg_bagging_fraction: 1]
[bagging_freq: 0]
[bagging_seed: 3]
[feature_fraction: 1]
[feature_fraction_bynode: 1]
[feature_fraction_seed: 2]
[extra_trees: 0]
[extra_seed: 6]
[early_stopping_round: 0]
[first_metric_only: 0]
[max_delta_step: 0]
[lambda_l1: 0]
[lambda_l2: 0]
[linear_lambda: 0]
[min_gain_to_split: 0]
[drop_rate: 0.1]
[max_drop: 50]
[skip_drop: 0.5]
[xgboost_dart_mode: 0]
[uniform_drop: 0]
[drop_seed: 4]
[top_rate: 0.2]
[other_rate: 0.1]
[min_data_per_group: 100]
[max_cat_threshold: 32]
[cat_l2: 10]
[cat_smooth: 10]
[max_cat_to_onehot: 4]
[top_k: 20]
[monotone_constraints: ]
[monotone_constraints_method: basic]
[monotone_penalty: 0]
[feature_contri: ]
[forcedsplits_filename: ]
[refit_decay_rate: 0.9]
[cegb_tradeoff: 1]
[cegb_penalty_split: 0]
[cegb_penalty_feature_lazy: ]
[cegb_penalty_feature_coupled: ]
[path_smooth: 0]
[interaction_constraints: ]
[verbosity: -1]
[saved_feature_importance_type: 0]
[linear_tree: 0]
[max_bin: 255]
[max_bin_by_feature: ]
[min_data_in_bin: 3]
[bin_construct_sample_cnt: 200000]
[data_random_seed: 1]
[is_enable_sparse: 1]
[enable_bundle: 1]
[use_missing: 1]
[zero_as_missing: 0]
[feature_pre_filter: 1]
[pre_partition: 0]
[two_round: 0]
[header: 0]
[label_column: ]
[weight_column: ]
[group_column: ]
[ignore_column: ]
[categorical_feature: ]
[forcedbins_filename: ]
[precise_float_parser: 0]
[objective_seed: 5]
[num_class: 1]
[is_unbalance: 0]
[scale_pos_weight: 1]
[sigmoid: 1]
[boost_from_average: 1]
[reg_sqrt: 0]
[alpha: 0.9]
[fair_c: 1]
[poisson_max_delta_step: 0.7]
[tweedie_variance_power: 1.5]
[lambdarank_truncation_level: 30]
[lambdarank_norm: 1]
[label_gain: 0,1,2,3,4]
[eval_at: 5,10]
[multi_error_top_k: 1]
[auc_mu_weights: ]
[num_machines: 1]
[local_listen_port: 12400]
[time_out: 120]
[machine_list_filename: ]
[machines: ]
[gpu_platform_id: -1]
[gpu_device_id: -1]
[gpu_use_dp: 0]
[num_gpu: 1]

end of parameters

pandas_categorical:null
