tree
version=v3
num_class=1
num_tree_per_iteration=1
label_index=0
max_feature_idx=135
objective=lambdarank
feature_names=Column_0 Column_1 Column_2 Column_3 Column_4 Column_5 Column_6 Column_7 Column_8 Column_9 Column_10 Column_11 Column_12 Column_13 Column_14 Column_15 Column_16 Column_17 Column_18 Column_19 Column_20 Column_21 Column_22 Column_23 Column_24 Column_25 Column_26 Column_27 Column_28 Column_29 Column_30 Column_31 Column_32 Column_33 Column_34 Column_35 Column_36 Column_37 Column_38 Column_39 Column_40 Column_41 Column_42 Column_43 Column_44 Column_45 Column_46 Column_47 Column_48 Column_49 Column_50 Column_51 Column_52 Column_53 Column_54 Column_55 Column_56 Column_57 Column_58 Column_59 Column_60 Column_61 Column_62 Column_63 Column_64 Column_65 Column_66 Column_67 Column_68 Column_69 Column_70 Column_71 Column_72 Column_73 Column_74 Column_75 Column_76 Column_77 Column_78 Column_79 Column_80 Column_81 Column_82 Column_83 Column_84 Column_85 Column_86 Column_87 Column_88 Column_89 Column_90 Column_91 Column_92 Column_93 Column_94 Column_95 Column_96 Column_97 Column_98 Column_99 Column_100 Column_101 Column_102 Column_103 Column_104 Column_105 Column_106 Column_107 Column_108 Column_109 Column_110 Column_111 Column_112 Column_113 Column_114 Column_115 Column_116 Column_117 Column_118 Column_119 Column_120 Column_121 Column_122 Column_123 Column_124 Column_125 Column_126 Column_127 Column_128 Column_129 Column_130 Column_131 Column_132 Column_133 Column_134 Column_135
feature_infos=[0:75] [0:7] [0:15] [0:15] [0:75] [0:1] [0:1] [0:1] [0:1] [0:1] [0:11266] [0:3233] [0:5223] [2:119] [2:11277] [-1.9397770000000001:81.729558999999995] [3.725981:513.52506000000005] [1.9933719999999999:497.332786] [2.001239:362.45687400000003] [-1.9448369999999999:81.692890000000006] [0:289275] [0:178] [0:862] [0:19] [0:289275] [0:3857] [0:86] [0:79] [0:13] [0:3857] [0:3857] [0:86] [0:856] [0:13] [0:3857] [0:3857] [0:86] [0:287.33333299999998] [0:13] [0:3857] [0:161696.88888899999] [0:469] [0:161696.88888899999] [0:8] [0:646787.55555599998] [0:41.975309000000003] [0:2] [0:3] [0:1.125] [0:41.239891999999998] [0:1] [0:1] [0:1] [0:0.59999999999999998] [0:0.64285700000000001] [0:1] [0:1] [0:1] [0:0.59999999999999998] [0:0.64285700000000001] [0:1] [0:1] [0:1] [0:0.59999999999999998] [0:0.64285700000000001] [0:0.25] [0:0.25] [0:0.25] [0:0.040000000000000001] [0:0.0625] [-698.34880999999996:315124.32030800002] [0:1324.6620439999999] [0:6927.8545279999998] [0:148.35244599999999] [-704.62294499999996:306941.21288800001] [-464.11810200000002:4201.657604] [0:641.37398900000005] [0:357.381865] [0:73.682722999999996] [-467.37555700000001:4092.549505] [0:8112.1315219999997] [0:641.37398900000005] [0:6857.2939409999999] [0:73.682722999999996] [0:8662.4788680000001] [-267.68928899999997:4201.657604] [0:641.37398900000005] [0:2309.2848429999999] [0:73.682722999999996] [-272.27712300000002:4092.549505] [0:9092913.3625019994] [0:29229.340394999999] [0:10343023.179426] [0:1094.3037340000001] [0:16475487.344745001] [0:1] [0:1] [0:1] [0:1] [0:1] [0:1] [0:1] [0:1] [0:1] [0:1] [-11.441554:284.38819899999999] [0:63.935395] [0:84.585654000000005] [0:60.993035999999996] [-11.440550999999999:277.00980800000002] [-148.45702700000001:0] [-141.71242100000001:0] [-146.69159500000001:0] [-162.903042:0] [-148.757969:0] [-157.05346900000001:0] [-138.20396099999999:0] [-143.962503:0] [-161.33606900000001:0] [-157.27687499999999:0] [-162.142639:0] [-169.91323399999999:0] [-174.79303200000001:0.70559499999999997] [-190.99748399999999:0] [-162.479229:0] [1:22] [5:1032] [-2083777989:226244459] [0:164] [100:65534] [1:65535] [1:254] [1:254] [0:13150188] [0:2789632] [0:900000001]
tree_sizes=1253 1247 1245 1250 1243 1245 1239 1236 1234 1242 1241 1241 1246 1247 1235 1248 1250 1248 1234 1250 1238 1248 1245 1234 1236 1245 1250 1239 1251 1237 1246 1239 1246 1246 1246 1240 1246 1242 1241 1245 1248 1241 1240 1247 1237 1243 1239 1246 1241 1241

Tree=0
num_leaves=10
num_cat=0
split_feature=54 133 7 14 107 114 133 133 64
split_gain=1611.62 382.757 377.539 267.652 229.011 225.696 129.427 113.395 101.585
threshold=0.0060990000000000011 1.0000000180025095e-35 0.37980750000000002 32.500000000000007 15.541904500000001 -21.658375499999995 1.0000000180025095e-35 1.0000000180025095e-35 0.0039035000000000003
decision_type=2 2 2 2 2 2 2 2 2
left_child=2 4 3 -1 -2 8 -7 -4 -5
right_child=1 -3 7 5 -6 6 -8 -9 -10
leaf_value=0.010943692136536671 0.0057135579985349988 0.061838684635887577 -0.0055671704422895589 -0.070679247663998343 0.02550837078274559 -0.02772897493293925 0.053495567323437548 0.06086751569217539 -0.036734782991630535
leaf_weight=361.80652132515252 3577.5309965199867 445.13769866235452 2266.4022912204173 498.99212619769014 2469.9195834269121 2136.7777115653353 50.196556246664841 66.104431234878575 394.79473009899721
leaf_count=19773 210232 19766 134293 36356 135291 136612 2033 2688 26368
internal_value=0 0.0170919 -0.0192155 -0.0297385 0.0137982 -0.0345163 -0.0258647 -0.00368438 -0.0556856
internal_weight=0 6492.59 5775.07 3442.57 6047.45 3080.76 2186.97 2332.51 893.787
internal_count=723412 365289 358123 221142 345523 201369 138645 136981 62724
is_linear=0
shrinkage=0.05


Tree=1
num_leaves=10
num_cat=0
split_feature=133 7 124 107 134 14 64 24 29
split_gain=4661.38 1818.25 420.132 381.312 222.69 219.483 361.728 173.469 122.385
threshold=1.0000000180025095e-35 0.58571450000000003 -8.172470999999998 15.541904500000001 50.500000000000007 32.500000000000007 0.0061545000000000011 14.500000000000002 10.500000000000002
decision_type=2 2 2 2 2 2 2 2 2
left_child=1 2 5 8 -2 -1 -7 -5 -3
right_child=4 3 -4 7 -6 6 -8 -9 -10
leaf_value=-0.0045415188350992454 0.039651154397677711 -0.016647469370255283 -0.013904399840301788 -0.0026360836787759855 0.063962862674240839 -0.060848236828147599 -0.030384198606327545 0.012259002935257347 0.00046440370035227217
leaf_weight=497.60772601689678 2985.5173215330578 2680.644947542256 3635.8382485651819 2772.1748070080066 1376.0432171917055 1389.1229289477924 3264.0237093212781 6628.435097685724 1712.3709653653204
leaf_count=13082 17629 100196 129057 47113 7431 92923 140094 115345 60542
internal_value=0 -0.00914052 -0.0269177 0.00218359 0.0473213 -0.0361035 -0.0394788 0.00786654 -0.00997737
internal_weight=0 22580.2 8786.59 13793.6 4361.56 5150.75 4653.15 9400.61 4393.02
internal_count=723412 698352 375156 323196 25060 246099 233017 162458 160738
is_linear=0
shrinkage=0.05


Tree=2
num_leaves=10
num_cat=0
split_feature=133 7 114 107 14 134 29 64 24
split_gain=3917.54 1737.31 400.603 297.48 244.479 201.176 195.617 172.572 138.984
threshold=1.0000000180025095e-35 0.58571450000000003 -4.6140774999999996 15.803053000000002 29.500000000000004 10.500000000000002 10.500000000000002 0.0066085000000000007 14.500000000000002
decision_type=2 2 2 2 2 2 2 2 2
left_child=1 2 4 6 -1 -2 -3 -6 -5
right_child=5 3 -4 8 7 -7 -8 -9 -10
leaf_value=-0.0061849862930457031 0.033180939449064549 -0.018953422037177217 -0.0042623914818842304 -0.005731738732829437 -0.049512348675934965 0.056411323509897693 0.0015518474011422957 -0.03063173936245886 0.0098924911897797074
leaf_weight=695.33021890383679 1611.4011717219837 2272.0389872512314 1403.3885368036281 1747.5361590923276 1946.3744063131744 2210.3719908688217 2383.0005594103131 3200.0414158590138 7672.3110221615061
leaf_count=21168 12999 103487 49753 45576 138628 12061 61964 165607 112169
internal_value=0 -0.00835636 -0.02825 0.00188399 -0.0340126 0.0466165 -0.0084564 -0.0377724 0.00699394
internal_weight=0 21320 7245.13 14074.9 5841.75 3821.77 4655.04 5146.42 9419.85
internal_count=723412 698352 375156 323196 325403 25060 165451 304235 157745
is_linear=0
shrinkage=0.05


Tree=3
num_leaves=10
num_cat=0
split_feature=133 7 114 128 14 107 133 64 119
split_gain=3093.25 1398.96 370.862 211.282 189.632 179.74 166.987 163.218 116.286
threshold=1.0000000180025095e-35 0.58571450000000003 -4.6140774999999996 5.5000000000000009 29.500000000000004 18.198234000000003 63.500000000000007 0.0066085000000000007 -13.347750499999998
decision_type=2 2 2 2 2 2 2 2 2
left_child=1 2 4 5 -1 -3 -2 8 -6
right_child=6 3 -4 -5 7 -7 -8 -9 -10
leaf_value=-0.0063537375335853755 0.033569351503564326 -0.0085511919202521762 -0.0045554093084899903 0.012143030188156998 -0.059891546596110012 0.0045029925384491463 0.055675624281638969 -0.02907971396865916 -0.032815181782940593
leaf_weight=596.09674034977797 1813.6387677951716 5228.9702795889461 1502.7994692329958 3543.7499463008717 976.76249810075387 5319.2161873436999 1614.9363321568817 2820.7605821197503 667.54328429658199
leaf_count=21168 14930 156828 49753 77877 89633 88491 10130 165607 48995
internal_value=0 -0.00730035 -0.026366 0.00158036 -0.0328422 -0.00196826 0.0439819 -0.0363785 -0.0488993
internal_weight=0 20655.9 6563.96 14091.9 5061.16 10548.2 3428.58 4465.07 1644.31
internal_count=723412 698352 375156 323196 325403 245319 25060 304235 138628
is_linear=0
shrinkage=0.05


Tree=4
num_leaves=10
num_cat=0
split_feature=133 7 128 114 107 14 107 134 132
split_gain=2773.24 1324.36 337.407 220.549 277.51 183.875 160.159 151.429 135.486
threshold=1.0000000180025095e-35 0.69047650000000005 5.5000000000000009 -4.6140774999999996 12.481615500000002 32.500000000000007 15.632202000000001 5.5000000000000009 1.5000000000000002
decision_type=2 2 2 2 2 2 2 2 2
left_child=1 3 6 4 5 -1 -3 -2 -4
right_child=7 2 8 -5 -6 -7 -8 -9 -10
leaf_value=-0.0079859441206750915 0.026651315822292174 -0.013908440794133057 0.03453712556488716 -0.0055994356122973593 -0.011495289618390225 -0.037619827643348328 0.0020625110173867174 0.049556433668121347 0.010849146808499893
leaf_weight=605.02866167004686 1058.8845780370757 2244.6996733096894 728.88575167150702 1537.6050218839373 2070.2008381542983 3882.8313163472922 5220.540947271511 2265.2230356819928 3512.9617039981531
leaf_count=22145 10889 102447 11627 49790 70307 280780 106165 14171 55091
internal_value=0 -0.00709381 0.00365876 -0.022643 -0.0266391 -0.0336248 -0.00273974 0.0422601 0.0149195
internal_weight=0 19802.8 11707.1 8095.67 6558.06 4487.86 7465.24 3324.11 4241.85
internal_count=723412 698352 275330 423022 373232 302925 208612 25060 66718
is_linear=0
shrinkage=0.05


Tree=5
num_leaves=10
num_cat=0
split_feature=133 7 128 114 107 24 14 48 132
split_gain=2414.85 1293.13 341.741 222.786 221.066 179.584 168.516 164.633 224.826
threshold=1.0000000180025095e-35 0.69047650000000005 5.5000000000000009 -4.6140774999999996 12.337423500000002 14.500000000000002 32.500000000000007 0.15587050000000005 2.5000000000000004
decision_type=2 2 2 2 2 2 2 2 2
left_child=1 3 5 4 6 -3 -1 -4 -9
right_child=-2 2 7 -5 -6 -7 -8 8 -10
leaf_value=-0.0088413979678377431 0.039979757583438691 -0.015226440063759124 0.0078100494056404582 -0.0059203533465988631 -0.012834813154550075 0.0021742632328682725 -0.037575971844994803 0.057559379792642688 0.015467307137002931
leaf_weight=595.02168789634015 3232.0748986080289 2097.4679964182433 2887.0543845725479 1567.1763509618759 1880.2198826397653 5059.5135463244515 3580.7720416860539 455.11766981799155 1047.1557416688884
leaf_count=22125 25060 88356 47271 49790 71992 120256 279115 4694 14753
internal_value=0 -0.00674079 0.00381115 -0.0227231 -0.0270713 -0.00292529 -0.0334815 0.0147952 0.0282192
internal_weight=0 19169.5 11546.3 7623.19 6056.01 7156.98 4175.79 4389.33 1502.27
internal_count=723412 698352 275330 423022 373232 208612 301240 66718 19447
is_linear=0
shrinkage=0.05


Tree=6
num_leaves=10
num_cat=0
split_feature=133 7 24 122 64 130 128 107 47
split_gain=2089.6 1125.14 279.65 194.919 192.458 186.157 186.503 126.732 102.688
threshold=1.5000000000000002 0.69047650000000005 15.500000000000002 -14.929328999999997 0.0061545000000000011 64981.000000000007 12.500000000000002 22.970173500000005 0.19836050000000002
decision_type=2 2 2 2 2 2 2 2 2
left_child=1 3 -3 4 -1 7 -7 -4 -8
right_child=-2 2 5 -5 -6 6 8 -9 -10
leaf_value=-0.049793597550798957 0.039713932170927391 -0.0089963205260669057 0.0015610710460484953 -0.014084647080651255 -0.022673030786848167 -0.0048202877708007795 0.018559956102787031 0.015951349382165494 0.057535798435059841
leaf_weight=912.93499561911449 2875.1435764329508 3085.6285734574776 5131.0563396051293 4289.3381867614517 2307.6996416096226 292.86898607667536 274.45174394547939 2180.0305992263602 439.80011070228647
leaf_count=79494 21343 115070 115542 212240 132615 5830 3418 33447 4413
internal_value=0 -0.00603703 0.00385935 -0.0210646 -0.0303607 0.00862815 0.0287814 0.00585199 0.0425593
internal_weight=0 18913.8 11403.8 7509.97 3220.63 8318.21 1007.12 7311.09 714.252
internal_count=723412 702069 277720 424349 212109 162650 13661 148989 7831
is_linear=0
shrinkage=0.05


Tree=7
num_leaves=10
num_cat=0
split_feature=133 7 24 114 107 128 14 130 135
split_gain=1922.58 1041.3 254.134 194.244 197.903 150.745 144.183 117.719 113.2
threshold=1.0000000180025095e-35 0.69047650000000005 15.500000000000002 -4.6140774999999996 12.337423500000002 8.5000000000000018 32.500000000000007 64121.500000000007 11.403571428571452
decision_type=2 2 2 2 2 2 2 2 2
left_child=1 3 -3 4 6 -4 -1 -7 -2
right_child=8 2 5 -5 -6 7 -8 -9 -10
leaf_value=-0.0072779854780801352 0.019706421504983827 -0.0094194403592066118 0.0035408518825610458 -0.005295718368575628 -0.011328166086718569 0.011069611133751288 -0.035258683247202903 0.034977003043201706 0.041140586237543159
leaf_weight=532.23585434269626 830.1677548866719 2821.6052370039979 5606.9604768085992 1549.7508335438033 1762.4369867202768 1654.076326813898 3411.2288071533258 747.62935884878971 2387.5774645837955
leaf_count=22125 9028 114393 127231 49790 71992 24900 279115 8806 16032
internal_value=0 -0.00633564 0.00348424 -0.0209935 -0.025257 0.00803045 -0.0314822 0.0185118 0.0356106
internal_weight=0 18085.9 10830.3 7255.65 5705.9 8008.67 3943.46 2401.71 3217.75
internal_count=723412 698352 275330 423022 373232 160937 301240 33706 25060
is_linear=0
shrinkage=0.05


Tree=8
num_leaves=10
num_cat=0
split_feature=133 7 24 122 64 128 107 134 130
split_gain=1713.67 898.361 221.989 184.036 172.838 134.579 108.798 100.896 95.5874
threshold=1.0000000180025095e-35 0.69047650000000005 14.500000000000002 -14.929328999999997 0.0061545000000000011 8.5000000000000018 18.198234000000003 251.50000000000003 64121.500000000007
decision_type=2 2 2 2 2 2 2 2 2
left_child=1 3 -3 4 -1 6 -4 -2 -7
right_child=7 2 5 -5 -6 8 -8 -9 -10
leaf_value=-0.048624024930978754 0.02869624775051224 -0.010191898793919262 -0.0051693748347016654 -0.012940926719378232 -0.021785895727193444 0.010430035889959437 0.0087154182542025765 0.04908314923022844 0.031983906263552145
leaf_weight=830.95661367138382 2322.9873596951365 2412.6973230834119 2431.0767155939247 4108.6583223443886 2157.378588276857 1727.8471205339301 3361.9399452407379 821.512660484761 732.43617770075798
leaf_count=79383 21101 107190 74609 211510 132129 25851 58653 3959 9027
internal_value=0 -0.00602283 0.00314938 -0.0198076 -0.0292487 0.00704945 0.00288858 0.0340224 0.0168467
internal_weight=0 17763 10666 7096.99 2988.34 8253.3 5793.02 3144.5 2460.28
internal_count=723412 698352 275330 423022 211512 168140 133262 25060 34878
is_linear=0
shrinkage=0.05


Tree=9
num_leaves=10
num_cat=0
split_feature=133 7 74 114 107 130 133 128 14
split_gain=1598.54 798.09 188.404 168.336 184.347 120.368 117.629 102.195 89.5901
threshold=1.0000000180025095e-35 0.69047650000000005 94.785900000000012 -9.2324749999999991 12.204269000000002 64981.000000000007 238.50000000000003 12.500000000000002 32.500000000000007
decision_type=2 2 2 2 2 2 2 2 2
left_child=1 3 -3 4 8 -4 -2 -7 -1
right_child=6 2 5 -5 -6 7 -8 -9 -10
leaf_value=-0.0054357534635915356 0.025618073252459551 -0.0041133899890926457 0.0065762643610081635 -0.0097564101417058034 -0.011509908883420293 -0.0063815182670212585 0.045784611809519378 0.040411608829301816 -0.036656634535435113
leaf_weight=254.96367105585523 1897.382974605076 5015.5207253703848 4822.1696004065452 2922.7549657110067 1495.2883084682398 152.27552685351111 1168.3481214661151 499.19634464406408 2326.1862889017502
leaf_count=12824 18221 165790 99708 145410 63664 3623 6839 6209 201124
internal_value=0 -0.00583815 0.00288704 -0.0189139 -0.0254798 0.00930157 0.0333035 0.0294741 -0.0335727
internal_weight=0 17488.4 10489.2 6999.19 4076.44 5473.64 3065.73 651.472 2581.15
internal_count=723412 698352 275330 423022 277612 109540 25060 9832 213948
is_linear=0
shrinkage=0.05


Tree=10
num_leaves=10
num_cat=0
split_feature=133 7 74 122 64 130 134 128 100
split_gain=1465 728.196 177.73 144.743 137.268 99.9342 90.3627 83.8321 76.7919
threshold=2.5000000000000004 0.7321430000000001 94.785900000000012 -17.206232499999995 0.0061545000000000011 64981.000000000007 5.5000000000000009 12.500000000000002 0.40892150000000005
decision_type=2 2 2 2 2 2 2 2 2
left_child=1 3 -3 4 -1 -4 -2 -7 -5
right_child=6 2 5 8 -6 7 -8 -9 -10
leaf_value=-0.047502510310216975 0.019280903984779892 -0.0039094534309821608 0.0067691129724123294 -0.0066420591091436365 -0.020244954053623903 -0.0055832187126565154 0.040866778127621253 0.037968517560567752 -0.019360520472863466
leaf_weight=644.96068793933955 650.16149732889608 4869.3070576223545 5161.3877987909364 2514.7127162919205 1627.1861352393171 143.49021270032972 1906.5886753899977 480.50633221911266 2247.5671787827741
leaf_count=66369 7560 167354 101503 111834 102721 3642 12139 6227 144063
internal_value=0 -0.00511342 0.00312958 -0.0175987 -0.0279822 0.00905402 0.0353777 0.0279536 -0.0126446
internal_weight=0 17689.1 10654.7 7034.43 2272.15 5785.38 2556.75 623.997 4762.28
internal_count=723412 703713 278726 424987 169090 111372 19699 9869 255897
is_linear=0
shrinkage=0.05


Tree=11
num_leaves=10
num_cat=0
split_feature=133 7 128 114 107 48 134 132 107
split_gain=1327.16 659.498 166.034 148.82 147.153 101.617 94.7512 92.2931 88.1202
threshold=1.0000000180025095e-35 0.7321430000000001 2.5000000000000004 -9.2324749999999991 12.204269000000002 0.15587050000000005 39.500000000000007 2.5000000000000004 18.198234000000003
decision_type=2 2 2 2 2 2 2 2 2
left_child=1 3 8 4 -1 -4 -2 -7 -3
right_child=6 2 5 -5 -6 7 -8 -9 -10
leaf_value=-0.031313367945224817 0.022753126247279078 -0.010192263152712764 0.0038986271867039839 -0.0088612253407579812 -0.011111505627838488 0.040038781095392072 0.040824330444728774 0.012679135503884512 0.0026275468252333579
leaf_weight=2446.4104098174721 1554.3523667012341 2554.8489305203548 3193.9198236874072 2879.4229410869011 1427.3437425667653 397.94980299612507 1360.0245510591194 1367.330909108161 2820.0550837503979
leaf_count=213948 16997 109243 73081 145410 63702 5615 8063 24532 62821
internal_value=0 -0.00531907 0.00262161 -0.0174704 -0.0238697 0.00921961 0.0311862 0.0188469 -0.00346608
internal_weight=0 17087.3 10334.1 6753.18 3873.75 4959.2 2914.38 1765.28 5374.9
internal_count=723412 698352 275292 423060 277650 103228 25060 30147 172064
is_linear=0
shrinkage=0.05


Tree=12
num_leaves=10
num_cat=0
split_feature=133 7 128 114 64 48 133 132 49
split_gain=1187.15 608.964 168.722 142.301 141.972 101.959 95.065 86.0533 80.5434
threshold=1.0000000180025095e-35 0.7321430000000001 2.5000000000000004 -9.2324749999999991 0.0069105000000000008 0.15587050000000005 63.500000000000007 2.5000000000000004 0.027174500000000004
decision_type=2 2 2 2 2 2 2 2 2
left_child=1 3 8 4 -1 -4 -2 -7 -3
right_child=6 2 5 -5 -6 7 -8 -9 -10
leaf_value=-0.037836859104053329 0.020162471456454202 -0.018696501740297643 0.0036989538784807925 -0.0084333648363859835 -0.016777376043260291 0.038223174743038962 0.038405254827903926 0.012583762525828632 -0.0011260305705472122
leaf_weight=1148.196857274801 1357.5392618207261 767.82147831248585 3201.2833112085937 2893.5462809768214 2641.2217973532388 423.46214476251043 1506.7638028599322 1440.5092563697835 4332.6064857135061
leaf_count=113238 14930 34163 73081 145410 164412 5615 10130 24532 137901
internal_value=0 -0.0050591 0.00264815 -0.0167829 -0.0231584 0.00911198 0.0297591 0.0184086 -0.0037711
internal_weight=0 16848.6 10165.7 6682.96 3789.42 5065.25 2864.3 1863.97 5100.43
internal_count=723412 698352 275292 423060 277650 103228 25060 30147 172064
is_linear=0
shrinkage=0.05


Tree=13
num_leaves=10
num_cat=0
split_feature=133 52 64 128 100 48 134 132 64
split_gain=1074.06 570.06 166.127 155.994 122.921 96.8977 93.4931 78.0393 70.5209
threshold=1.0000000180025095e-35 0.069502500000000009 0.011560000000000003 2.5000000000000004 0.29844350000000003 0.16163250000000004 5.5000000000000009 1.5000000000000002 0.0051195000000000017
decision_type=2 2 2 2 2 2 2 2 2
left_child=1 2 4 -3 -1 -5 -2 -7 -6
right_child=6 3 -4 5 8 7 -8 -9 -10
leaf_value=-0.013605858724022084 0.014784487737757292 -0.0029672882302748897 -0.0082291165255782197 0.0046324798846530671 -0.046125531404362916 0.043747958262530452 0.034563249735133854 0.014943441144722925 -0.024885438454135503
leaf_weight=1732.4506916737591 859.37497217068449 4353.2630436198087 4318.8981406622624 2846.3985443513375 611.20618063135771 281.84633986838162 1960.5275594810955 1419.0442728978815 1083.6586799716461
leaf_count=97673 10889 153459 214386 66065 65828 3374 14171 23555 74012
internal_value=0 -0.00483383 -0.0147519 0.00379798 -0.0229716 0.0102746 0.0285356 0.0197165 -0.0325451
internal_weight=0 16646.8 7746.21 8900.55 3427.32 4547.29 2819.9 1700.89 1694.86
internal_count=723412 698352 451899 246453 237513 92994 25060 26929 139840
is_linear=0
shrinkage=0.05


Tree=14
num_leaves=10
num_cat=0
split_feature=133 7 123 128 48 64 132 45 135
split_gain=978.362 547.56 161.95 152.409 96.8643 84.767 78.3148 75.1258 71.9061
threshold=2.5000000000000004 0.58571450000000003 -13.479778499999998 2.5000000000000004 0.15587050000000005 0.0088895000000000016 2.5000000000000004 0.021215500000000002 11.403571428571452
decision_type=2 2 2 2 2 2 2 2 2
left_child=1 2 5 7 -5 -1 -6 -3 -2
right_child=8 3 -4 4 6 -7 -8 -9 -10
leaf_value=-0.036002054005425436 0.013164062380594213 -0.018939100837101621 -0.0083561628235687708 0.0027967994238588278 0.034225230065392152 -0.018384205996375171 0.011179624520509711 -0.0015358481971373215 0.03441085454373196
leaf_weight=1137.3856474869535 504.7640651317779 709.32877714012284 2715.359796744393 3502.012930367724 474.74105490208603 1708.062728511868 1649.5353996084305 4930.1169404723332 1886.5286866100505
leaf_count=115354 6216 35844 140059 86314 6949 121267 29456 168470 13483
internal_value=0 -0.00425291 -0.017091 0.002084 0.00790641 -0.0254264 0.0163299 -0.00372483 0.029926
internal_weight=0 16826.5 5560.81 11265.7 5626.29 2845.45 2124.28 5639.45 2391.29
internal_count=723412 703713 376680 327033 122719 236621 36405 204314 19699
is_linear=0
shrinkage=0.05


Tree=15
num_leaves=10
num_cat=0
split_feature=133 62 128 113 106 126 49 107 134
split_gain=900.226 507.286 165.988 127.21 93.9323 83.298 79.0045 76.7585 75.1625
threshold=1.0000000180025095e-35 0.066987500000000019 2.5000000000000004 -14.828952499999998 16.067667000000004 28.500000000000004 0.036544000000000007 18.198234000000003 538.50000000000011
decision_type=2 2 2 2 2 2 2 2 2
left_child=1 3 7 6 5 -4 -1 -3 -2
right_child=8 2 4 -5 -6 -7 -8 -9 -10
leaf_value=-0.03791929340932787 0.022339624635170238 -0.010174229125690173 0.019945654420907375 -0.011404239832604706 0.023898714785302051 0.0019407556101421674 -0.017726320697668531 0.0012033875778307648 0.042873007321476787
leaf_weight=1029.7819078574248 2172.2455688132904 3195.5173647379852 753.21208611672046 2523.8789210210962 718.24859856208786 4365.6929136964609 914.58505082834745 2765.1362791454885 560.71938229072839
leaf_count=105881 22293 162860 20160 150375 12482 110081 59625 76888 2767
internal_value=0 -0.00446125 0.000972797 -0.0188091 0.00696594 0.00459005 -0.028421 -0.00489617 0.0265524
internal_weight=0 16266.1 11797.8 4468.25 5837.15 5118.9 1944.37 5960.65 2732.96
internal_count=723412 698352 382471 315881 142723 130241 165506 239748 25060
is_linear=0
shrinkage=0.05


Tree=16
num_leaves=10
num_cat=0
split_feature=133 62 29 114 74 132 133 100 83
split_gain=842.249 494.178 159.264 120.768 105.911 87.5058 81.4825 81.3879 61.8827
threshold=1.0000000180025095e-35 0.066987500000000019 4.5000000000000009 -22.548092999999998 102.77414800000001 1.5000000000000002 63.500000000000007 0.33430600000000005 6.4742840000000008
decision_type=2 2 2 2 2 2 2 2 2
left_child=1 3 -3 -1 -4 -6 -2 -5 -9
right_child=6 2 4 7 5 -7 -8 8 -10
leaf_value=-0.038150502354004967 0.016712254442850603 -0.0070816792299630716 -0.0016079058914764315 -0.0077188510654945313 0.027971556466550349 0.0074306893611629623 0.034145056493865254 -0.029011490721864954 -0.0087974874544321565
leaf_weight=686.39545398438349 1272.3789687980898 4059.744485317613 3309.0782857813174 1789.4302049455291 600.23303570225835 3807.1742570863571 1416.5555579010397 1235.3713805039297 545.94400116452016
leaf_count=65883 14930 165235 117077 99670 10795 89364 10130 110272 40056
internal_value=0 -0.00434299 0.00093484 -0.0189427 0.00515244 0.0102281 0.025896 -0.0152504 -0.0228162
internal_weight=0 16033.4 11776.2 4257.14 7716.49 4407.41 2688.93 3570.75 1781.32
internal_count=723412 698352 382471 315881 217236 100159 25060 249998 150328
is_linear=0
shrinkage=0.05


Tree=17
num_leaves=10
num_cat=0
split_feature=133 29 122 46 64 134 107 128 53
split_gain=772.303 462.36 164.943 117.35 114.65 82.195 73.3494 67.9211 58.9865
threshold=1.0000000180025095e-35 4.5000000000000009 -10.442417999999998 0.50213700000000017 0.0087455000000000015 44.500000000000007 15.803053000000002 1.0000000180025095e-35 0.12916650000000005
decision_type=2 2 2 2 2 2 2 2 2
left_child=1 2 4 6 -1 -2 8 -4 -3
right_child=5 3 7 -5 -6 -7 -8 -9 -10
leaf_value=-0.033386591943903775 0.017011385427050718 -0.0073248266976167252 -0.012396190568192307 0.021008419529515515 -0.01461118887333856 0.034694096031474407 0.0065493960385360067 0.00093676964172607229 0.0079630889051995907
leaf_weight=1174.3360617260332 1463.2778065453749 2517.026416837034 1899.6446935228596 907.14201454742579 2643.1112648802227 1192.9696582462639 3964.8416896099225 1921.2556899463525 842.02468584070448
leaf_count=122698 17334 117374 94572 18230 155481 7726 89835 72006 28156
internal_value=0 -0.00417668 -0.0130362 0.00404485 -0.0203869 0.024953 0.00194373 -0.005692 -0.00349255
internal_weight=0 15869.4 7638.35 8231.03 3817.45 2656.25 7323.89 3820.9 3359.05
internal_count=723412 698352 444757 253595 278179 25060 235365 166578 145530
is_linear=0
shrinkage=0.05


Tree=18
num_leaves=10
num_cat=0
split_feature=133 29 122 106 64 107 132 135 53
split_gain=710.722 445.709 140.112 127.104 95.0405 82.8659 70.9103 65.1193 61.9287
threshold=2.5000000000000004 3.5000000000000004 -10.089754999999998 13.494742 0.0087455000000000015 15.803053000000002 2.5000000000000004 11.403571428571452 0.12916650000000005
decision_type=2 2 2 2 2 2 2 2 2
left_child=1 2 4 5 -1 8 -5 -2 -3
right_child=7 3 -4 6 -6 -7 -8 -9 -10
leaf_value=-0.032135776895512752 0.010174196481544226 -0.0081336334536080777 -0.0057451811596655016 0.039355399353971948 -0.014678654457637628 0.0057453598898710061 0.011559421470133568 0.030717054197202581 0.0070166676587630379
leaf_weight=1136.139887561847 493.33196260151453 2791.5269230482518 3157.4377192185493 295.5220645852969 2484.8246434483444 4304.0631587401731 1026.2412760790903 1769.3221333110705 889.42118678230327
leaf_count=120588 6216 139347 138950 5013 146161 102331 21336 13483 29987
internal_value=0 -0.00369083 -0.0134434 0.00341225 -0.0201561 0.00103493 0.0177741 0.026238 -0.00447289
internal_weight=0 16085.2 6778.4 9306.77 3620.96 7985.01 1321.76 2262.65 3680.95
internal_count=723412 703713 405699 298014 266749 271665 26349 19699 169334
is_linear=0
shrinkage=0.05


Tree=19
num_leaves=10
num_cat=0
split_feature=133 29 122 106 64 128 13 134 49
split_gain=652.276 413.381 140.35 121.229 88.2683 75.5729 74.3448 70.8657 62.8648
threshold=1.0000000180025095e-35 3.5000000000000004 -10.442417999999998 16.331649000000002 0.0087455000000000015 2.5000000000000004 6.5000000000000009 251.50000000000003 0.029270000000000001
decision_type=2 2 2 2 2 2 2 2 2
left_child=1 2 4 5 -1 8 -7 -2 -3
right_child=7 3 -4 -5 -6 6 -8 -9 -10
leaf_value=-0.032304572464476919 0.018132228279019592 -0.017153972630531839 -0.0057567700297224515 0.020158984713254783 -0.015005566195276532 0.017254126950226375 0.0018790550622239822 0.036678547305526554 -0.0008420376808039589
leaf_weight=1073.4172984657635 1894.6507618608885 717.55192266235827 3113.095721372345 929.73078920412809 2355.6358710814966 1067.0484303138219 2987.6810906019527 707.36019195523113 3340.040161744284
leaf_count=120052 21101 43463 139663 17069 144213 26800 77705 3959 129387
internal_value=0 -0.00386925 -0.0134429 0.00305751 -0.0204208 0.00109755 0.00592518 0.0231741 -0.00372667
internal_weight=0 15584.2 6542.15 9042.05 3429.05 8112.32 4054.73 2602.01 4057.59
internal_count=723412 698352 403928 294424 264265 277355 104505 25060 172850
is_linear=0
shrinkage=0.05


Tree=20
num_leaves=10
num_cat=0
split_feature=133 29 122 106 126 107 132 64 59
split_gain=608.12 400.401 120.023 115.989 73.2346 71.3561 64.3879 54.7459 51.1498
threshold=8.5000000000000018 3.5000000000000004 -21.623069499999996 13.494742 30.500000000000004 15.884500000000001 2.5000000000000004 0.0061545000000000011 0.019235000000000006
decision_type=2 2 2 2 2 2 2 2 2
left_child=1 2 7 4 -3 -6 -5 -1 -4
right_child=-2 3 8 6 5 -7 -8 -9 -10
leaf_value=-0.040217945517731453 0.026787803563551066 0.0088757152384627332 -0.014565711958580266 0.036747064358452271 -0.0081596563623776621 0.0030351000849708942 0.011010361833713128 -0.018938545307224469 -0.0046081592025248109
leaf_weight=429.99816998193273 1895.6546917920932 2219.3106842880952 2304.2031853976659 311.58383262343705 2507.3630110282102 3292.7956766837742 1104.3505863124738 1017.4208951813052 2929.0991233038367
leaf_count=54606 16075 81475 148034 5048 114195 78044 21802 70729 133404
internal_value=0 -0.00315091 -0.0125169 0.0034807 0.00115129 -0.00180431 0.0166739 -0.0252602 -0.00899243
internal_weight=0 16116.1 6680.72 9435.4 8019.47 5800.16 1415.93 1447.42 5233.3
internal_count=723412 707337 406773 300564 273714 192239 26850 125335 281438
is_linear=0
shrinkage=0.05


Tree=21
num_leaves=10
num_cat=0
split_feature=133 29 122 128 64 134 48 132 92
split_gain=563.369 372.925 131.142 97.2901 85.7767 67.0421 66.947 77.0785 58.8577
threshold=1.0000000180025095e-35 4.5000000000000009 -10.442417999999998 2.5000000000000004 0.0087455000000000015 6.5000000000000009 0.16163250000000004 1.5000000000000002 0.045972000000000006
decision_type=2 2 2 2 2 2 2 2 2
left_child=1 2 4 -3 -1 -2 -5 -8 -4
right_child=5 3 8 6 -6 -7 7 -9 -10
leaf_value=-0.030663839643627316 0.010246008286263777 -0.0021180589536140383 -0.01176274927147598 0.0038651604421417012 -0.013654085727622493 0.027571564704280446 0.040233749499815008 0.011818716465997678 0.00086111852070430239
leaf_weight=1051.6197156502167 832.38962593162432 3743.7345470619621 1785.1053261994093 2622.525368815579 2510.5551307688584 1696.0530496425927 286.65887680242304 1425.2718904523063 1912.6223318278498
leaf_count=122698 11413 151418 101353 71383 155481 13647 4245 26549 65225
internal_value=0 -0.00360485 -0.0118289 0.00378615 -0.0186757 0.0218678 0.00888571 0.0165767 -0.00523315
internal_weight=0 15338.1 7259.9 8078.19 3562.17 2528.44 4334.46 1711.93 3697.73
internal_count=723412 698352 444757 253595 278179 25060 102177 30794 166578
is_linear=0
shrinkage=0.05


Tree=22
num_leaves=10
num_cat=0
split_feature=133 54 128 122 48 107 132 134 49
split_gain=517.746 349.28 115.203 102.688 76.872 76.7645 67.3927 56.9304 53.9861
threshold=1.5000000000000002 0.0060990000000000011 2.5000000000000004 -15.384943499999997 0.16163250000000004 9.1969075000000018 1.5000000000000002 33.500000000000007 0.028964500000000001
decision_type=2 2 2 2 2 2 2 2 2
left_child=1 3 8 5 -4 -1 -6 -2 -3
right_child=7 2 4 -5 6 -7 -8 -9 -10
leaf_value=-0.030999549191762815 0.014248790192387806 -0.016119063432112165 0.0029793945634358538 -0.0078896358761860533 0.038333269226087402 -0.012101075551267462 0.011855127426674564 0.030153875655495939 -0.00088024961517833204
leaf_weight=1106.3148076212674 1097.9440427543595 670.73252321942709 3014.3391045588651 3435.4014189348964 284.44526649371255 1044.7939525023976 1548.9002402710612 1153.9113347837701 4353.6151567517663
leaf_count=121151 13513 43713 87502 176778 4229 55928 30034 7830 182734
internal_value=0 -0.00326287 0.00239091 -0.0132538 0.00788975 -0.0218206 0.0159632 0.022399 -0.00291458
internal_weight=0 15458.5 9872.03 5586.51 4847.68 2151.11 1833.35 2251.86 5024.35
internal_count=723412 702069 348212 353857 121765 177079 34263 21343 226447
is_linear=0
shrinkage=0.05


Tree=23
num_leaves=10
num_cat=0
split_feature=133 54 74 122 132 129 134 130 107
split_gain=472.808 329.781 102.39 95.7796 79.58 72.661 58.6821 53.5748 50.0617
threshold=1.0000000180025095e-35 0.0071105000000000014 101.51444750000002 -21.938979 1.5000000000000002 21380.500000000004 33.500000000000007 63756.000000000007 9.1969075000000018
decision_type=2 2 2 2 2 2 2 2 2
left_child=1 3 5 8 7 -3 -2 -4 -1
right_child=6 2 4 -5 -6 -7 -8 -9 -10
leaf_value=-0.032587909724891402 0.012870835407885618 -0.0069404438205422879 0.0042095559852187037 -0.0091710573075536161 0.0054455506043426137 0.0057356643475692968 0.028320158231957483 0.036323680278448317 -0.012879885543954559
leaf_weight=781.34464786434546 1274.7930597942322 3178.3226218437194 197.1790913058212 4460.0535261920595 3810.9820294425008 1754.5860933233635 1186.9365646783262 380.44681865267921 548.37410699602333
leaf_count=88614 16525 134162 5655 246515 99831 83484 8535 5941 34150
internal_value=0 -0.00331023 0.00251106 -0.0126825 0.00806683 -0.00243168 0.0203198 0.0253612 -0.0244603
internal_weight=0 15111.3 9321.52 5789.77 4388.61 4932.91 2461.73 577.626 1329.72
internal_count=723412 698352 329073 369279 111427 217646 25060 11596 122764
is_linear=0
shrinkage=0.05


Tree=24
num_leaves=10
num_cat=0
split_feature=133 29 122 106 126 64 132 14 107
split_gain=437.38 320.515 101.993 97.7655 70.4034 60.6 59.3793 56.9281 53.3097
threshold=2.5000000000000004 3.5000000000000004 -10.442417999999998 16.331649000000002 30.500000000000004 0.0087455000000000015 2.5000000000000004 32.500000000000007 15.803053000000002
decision_type=2 2 2 2 2 2 2 2 2
left_child=1 2 5 4 -3 7 -5 -1 -6
right_child=-2 3 -4 6 8 -7 -8 -9 -10
leaf_value=0.01240892194054543 0.021552481572777227 0.0089093687569833692 -0.0049691484296346808 0.041096125004944584 -0.0070183553877085324 -0.013185886848210308 0.01146665760683932 -0.031535064284714684 0.0026076767857063912
leaf_weight=80.174126181344036 2074.2153390829917 2216.9046000894159 3051.468894892314 217.61239625909366 2532.3855034357402 2279.2041978634079 758.40792009723373 912.68643813268864 3329.1413322138833
leaf_count=7897 19699 81545 140341 3027 116980 144985 14561 112476 81901
internal_value=0 -0.00290704 -0.0115447 0.0031254 0.00131948 -0.0176769 0.0180728 -0.0279866 -0.00155111
internal_weight=0 15378 6323.53 9054.45 8078.43 3272.06 976.02 992.861 5861.53
internal_count=723412 703713 405699 298014 280426 265358 17588 120373 198881
is_linear=0
shrinkage=0.05


Tree=25
num_leaves=10
num_cat=0
split_feature=133 54 106 122 13 125 48 107 132
split_gain=399.051 302.717 102.786 84.6268 84.3814 82.0069 73.2722 61.0942 55.6476
threshold=4.5000000000000009 0.0060990000000000011 13.097533500000003 -15.384943499999997 4.5000000000000009 1.5000000000000002 0.13188400000000003 10.119347500000002 2.5000000000000004
decision_type=2 2 2 2 2 2 2 2 2
left_child=1 3 4 7 5 -3 -6 -1 -4
right_child=-2 2 8 -5 6 -7 -8 -9 -10
leaf_value=-0.027979143205299168 0.021555891837156033 0.0053956169489365541 0.032824767082273297 -0.0072700363646132768 -0.0060570152999254124 0.035735742304191291 0.0040857493709774836 -0.010726514243953907 0.0094980661338934427
leaf_weight=1122.528736512817 1910.5440240309108 967.08409698773175 330.77722490986343 3406.8898859344772 4100.7422479572124 289.3564608739689 3147.1287615605979 945.2059651754098 1125.9872678215615
leaf_count=128027 17859 43030 5212 177349 166809 11157 100378 49358 24233
internal_value=0 -0.00266807 0.00252291 -0.012113 0.000420787 0.0123829 -0.00165288 -0.0200926 0.0147947
internal_weight=0 15435.7 9961.08 5474.62 8504.31 1256.44 7247.87 2067.73 1456.76
internal_count=723412 705553 350819 354734 321374 54187 267187 177385 29445
is_linear=0
shrinkage=0.05


Tree=26
num_leaves=10
num_cat=0
split_feature=133 54 129 7 100 24 134 17 109
split_gain=367.329 286.979 86.892 86.2198 88.5854 74.4497 57.7838 57.4611 43.7862
threshold=1.0000000180025095e-35 0.0081315000000000016 22755.000000000004 0.41428550000000003 0.10324950000000001 25.500000000000004 1861.5000000000002 21.915921500000003 21.362114000000002
decision_type=2 2 2 2 2 2 2 2 2
left_child=1 3 5 4 -1 -3 -2 -5 -4
right_child=6 2 8 7 -6 -7 -8 -9 -10
leaf_value=-0.0081123969389671636 0.015408101977881958 -0.0061320429682259446 0.0050101960098047765 -0.013778674810238825 -0.026466555530380367 0.0049368316438010125 0.039708035000014415 -0.00039608214857183812 0.017743709145045722
leaf_weight=1203.3124501035782 2103.823638379341 3051.1435946266283 1731.1822510206839 1384.5081871050643 1449.0817980145512 3025.5001564238337 276.8368716314435 1906.8157362563943 1106.708567061869
leaf_count=76508 23621 130541 71081 85600 155856 76190 1439 66293 36283
internal_value=0 -0.00292151 0.00275251 -0.0114315 -0.0181398 -0.000620961 0.0182338 -0.00602552 0.00997596
internal_weight=0 14858.3 8914.53 5943.72 2652.39 6076.64 2380.66 3291.32 2837.89
internal_count=723412 698352 314095 384257 232364 206731 25060 151893 107364
is_linear=0
shrinkage=0.05


Tree=27
num_leaves=10
num_cat=0
split_feature=133 54 128 122 107 13 125 48 132
split_gain=351.818 277.602 95.7351 76.8118 76.6255 68.3868 66.2668 63.3137 58.3685
threshold=8.5000000000000018 0.0060990000000000011 8.5000000000000018 -26.912360999999994 21.470049000000003 4.5000000000000009 1.5000000000000002 0.16163250000000004 1.5000000000000002
decision_type=2 2 2 2 2 2 2 2 2
left_child=1 3 4 -1 5 6 -3 -4 -9
right_child=-2 2 7 -5 -6 -7 -8 8 -10
leaf_value=-0.026052681389205409 0.021440414015536619 0.001243492972549651 0.0047524576485681487 -0.0090884299747896191 0.0080697137698405221 -0.0059275688373886725 0.030966323374665303 0.042450277375180701 0.013981705658458991
leaf_weight=780.18342012705398 1720.9888509674929 785.6238930420368 1483.817581846728 4610.3255205165478 2033.6163944940781 4518.678622872394 246.3181614120258 242.82055437436793 696.46632760087959
leaf_count=79144 16075 38344 40079 276012 49542 199177 9361 3186 12492
internal_value=0 -0.00239635 0.00253092 -0.0115437 -0.000233325 -0.00327536 0.00833815 0.0111829 0.0213413
internal_weight=0 15397.9 10007.3 5390.51 7584.24 5550.62 1031.94 2423.1 939.287
internal_count=723412 707337 352181 355156 296424 246882 47705 55757 15678
is_linear=0
shrinkage=0.05


Tree=28
num_leaves=10
num_cat=0
split_feature=54 129 106 13 133 114 48 5 107
split_gain=327.955 190.01 102.975 100.093 89.6015 78.1542 68.4908 56.9929 80.5317
threshold=0.0069815000000000007 63742.500000000007 15.733932500000002 4.5000000000000009 1.0000000180025095e-35 -26.985309999999995 0.15587050000000005 0.85164850000000014 13.291777000000002
decision_type=2 2 2 2 2 2 2 2 2
left_child=4 2 3 -2 5 -1 -5 -7 -9
right_child=1 -3 -4 6 -6 7 -8 8 -10
leaf_value=-0.031572543817467762 0.013065033430348533 0.028562962579142405 0.016951242532176981 -0.0045880660317787116 0.010038199953915153 -0.0049452723114855211 0.00535253545714642 -0.025214075405199078 -0.0058702352697963022
leaf_weight=438.41956062673125 1535.6236783859204 801.55872824962717 1214.1332514887908 4736.2259497420746 539.17806554865092 2868.7972131181741 2732.5082838206436 1094.9430322490516 1057.8895398482564
leaf_count=47121 50270 18971 21348 181709 5757 162655 78142 111133 46306
internal_value=0 0.00512109 0.00328226 0.00143916 -0.00940699 -0.0113272 -0.000951201 -0.00955965 -0.0157086
internal_weight=0 11020 10218.5 9004.36 5999.23 5460.05 7468.73 5021.63 2152.83
internal_count=723412 350440 331469 310121 372972 367215 259851 320094 157439
is_linear=0
shrinkage=0.05


Tree=29
num_leaves=10
num_cat=0
split_feature=133 29 14 71 13 125 128 122 134
split_gain=316.566 253.211 81.162 80.2326 67.2343 75.3908 60.7508 57.5684 50.6769
threshold=8.5000000000000018 3.5000000000000004 1113.5000000000002 21.716431500000002 4.5000000000000009 1.5000000000000002 2.5000000000000004 -9.6294164999999996 255.50000000000003
decision_type=2 2 2 2 2 2 2 2 2
left_child=1 2 7 4 5 -3 -6 -1 -2
right_child=8 3 -4 -5 6 -7 -8 -9 -10
leaf_value=-0.012938409785243727 0.014625595840813833 0.0047813999988090515 -0.024180610947705058 0.018093967385989267 -0.0051337646767401716 0.032860933112054805 0.004149069977357713 -0.0025312838110488553 0.033226106098078592
leaf_weight=2656.763993949804 1116.0685643437319 860.8996680083801 873.29522241171799 808.77285052195657 3356.8074807735393 330.93407830205979 3710.9683314051945 2658.4744190595811 545.00135118514299
leaf_count=211645 12798 33354 73476 15723 143008 8838 99641 121652 3277
internal_value=0 -0.00225678 -0.0100542 0.00306439 0.0015927 0.0125782 -0.000259769 -0.00773317 0.0207285
internal_weight=0 15256.9 6188.53 9068.38 8259.61 1191.83 7067.78 5315.24 1661.07
internal_count=723412 707337 406773 300564 284841 42192 242649 333297 16075
is_linear=0
shrinkage=0.05


Tree=30
num_leaves=10
num_cat=0
split_feature=133 64 129 107 107 122 128 134 108
split_gain=293.047 247.798 114.302 73.7984 73.1012 60.4411 56.8664 51.3055 47.8872
threshold=41.500000000000007 0.010915500000000002 19145.000000000004 23.330219500000002 21.618076500000004 -16.129119499999998 12.500000000000002 34.500000000000007 13.672103000000002
decision_type=2 2 2 2 2 2 2 2 2
left_child=1 5 3 6 8 -1 -3 -2 -4
right_child=7 2 4 -5 -6 -7 -8 -9 -10
leaf_value=-0.024814992617615619 0.0094283075149497186 -0.0067317420615087874 0.0029442470586184249 0.0072007715307452818 0.023535517981591817 -0.0097808414607102427 0.0064193152570678593 0.030784088079365352 0.019317026739034435
leaf_weight=928.95652744433028 430.57328480202705 5247.625507795834 3196.0730421516346 1657.5685938943643 639.38534785888623 2384.5575239254977 974.68209146638401 810.87630762159824 519.13609247619752
leaf_count=107720 5628 224961 138386 38842 13718 146911 26377 5647 15222
internal_value=0 -0.00186659 0.0014184 -0.00217429 0.00791956 -0.0139957 -0.00467172 0.0233772 0.00523206
internal_weight=0 15548 12234.5 7879.88 4354.59 3313.51 6222.31 1241.45 3715.21
internal_count=723412 712137 457506 290180 167326 254631 251338 11275 153608
is_linear=0
shrinkage=0.05


Tree=31
num_leaves=10
num_cat=0
split_feature=54 129 74 122 133 133 46 109 13
split_gain=283.759 172.683 90.5189 78.1272 76.1813 53.414 52.2024 48.0365 47.4973
threshold=0.0069815000000000007 43654.000000000007 101.51444750000002 -21.256787999999997 126.50000000000001 48.500000000000007 0.50213700000000017 21.136733000000003 4.5000000000000009
decision_type=2 2 2 2 2 2 2 2 2
left_child=3 2 8 -1 7 -5 -4 -3 -2
right_child=1 4 6 5 -6 -7 -8 -9 -10
leaf_value=-0.019620154892214234 0.0082179486053473184 0.0060019392390656262 0.0038495706691863011 -0.007019688322990149 0.033838872219172533 0.01789173328981486 0.01840075725831565 0.021663516664760518 -0.0063019007232481663
leaf_weight=1314.5271390741254 672.0797247007722 1294.8339664669475 3378.3190428179223 4295.0954069828149 489.85211421456188 226.52657294692472 753.90538984327577 787.28463603800628 3477.5272716517211
leaf_count=127577 25615 49042 90495 243530 3606 1865 11925 21642 148115
internal_value=0 0.00478068 0.0012661 -0.00889088 0.0160977 -0.00577166 0.00650437 0.0119238 -0.00395023
internal_weight=0 10853.8 8281.83 5836.15 2571.97 4521.62 4132.22 2082.12 4149.61
internal_count=723412 350440 276150 372972 74290 245395 102420 70684 173730
is_linear=0
shrinkage=0.05


Tree=32
num_leaves=10
num_cat=0
split_feature=54 129 106 126 114 133 24 128 132
split_gain=268.831 159.948 86.5948 85.9384 76.7466 64.8581 62.4792 57.741 49.3768
threshold=0.0069815000000000007 63495.500000000007 16.459494000000003 30.500000000000004 -30.903213499999996 1.5000000000000002 25.500000000000004 1.0000000180025095e-35 1.5000000000000002
decision_type=2 2 2 2 2 2 2 2 2
left_child=4 2 3 7 -1 -6 -5 -2 -4
right_child=1 -3 8 6 5 -7 -8 -9 -10
leaf_value=-0.035455197692061506 0.0013728872714405846 0.025114259573625015 0.041265835502973358 -0.0072999592474595745 -0.009043004761899542 0.011000484624203373 0.0029473296226868481 0.015544698819927786 0.011612702035210185
leaf_weight=256.05789641683805 1472.248232187063 877.84891547512962 164.98894734343048 3009.0558900840697 5096.2717017102259 438.31919843610376 2941.7172897096025 1404.3271563935559 941.40351577242836
leaf_count=30761 58689 20349 2032 136428 337600 4611 80321 35466 17155
internal_value=0 0.00465634 0.00284847 0.00119575 -0.00869375 -0.00745563 -0.00223429 0.00829148 0.0160347
internal_weight=0 10811.6 9933.74 8827.35 5790.65 5534.59 5950.77 2876.58 1106.39
internal_count=723412 350440 330091 310904 372972 342211 216749 94155 19187
is_linear=0
shrinkage=0.05


Tree=33
num_leaves=10
num_cat=0
split_feature=54 129 133 74 7 100 133 109 15
split_gain=257.687 146.919 81.8162 70.5363 68.3516 71.7156 64.8844 48.2219 45.3688
threshold=0.0081315000000000016 43654.000000000007 1.0000000180025095e-35 94.785900000000012 0.37980750000000002 0.10324950000000001 425.50000000000006 21.136733000000003 14.179059000000002
decision_type=2 2 2 2 2 2 2 2 2
left_child=2 3 4 -2 5 -1 7 -3 -6
right_child=1 6 -4 -5 8 -7 -8 -9 -10
leaf_value=-0.0071636025056774971 -0.0036813832498800618 0.0060673827862215077 0.00992153057563816 0.0058433044951555725 -0.010116890750777818 -0.024307296777586255 0.034730641159593789 0.021367487206596439 0.0020712604583247767
leaf_weight=1157.0729729386512 3625.6814451475511 1331.1017532048281 571.77240029186942 4190.2932425594772 1840.0544253195985 1290.2594149190409 366.52292001992464 839.95374940743204 1305.0435230492731
leaf_count=76506 156419 47468 6407 105300 111514 151676 2652 20909 44561
internal_value=0 0.00481875 -0.0080937 0.00142498 -0.00993559 -0.0162019 0.0152719 0.0119868 -0.00505948
internal_weight=0 10353.6 6164.2 7815.97 5592.43 2447.33 2537.58 2171.06 3145.1
internal_count=723412 332748 390664 261719 384257 228182 71029 68377 156075
is_linear=0
shrinkage=0.05


Tree=34
num_leaves=10
num_cat=0
split_feature=133 64 129 108 107 122 134 108 13
split_gain=241.543 201.271 101.23 56.7811 56.2885 52.6972 44.3541 43.4644 43.0538
threshold=4.5000000000000009 0.011076500000000001 19145.000000000004 17.083370000000006 21.618076500000004 -14.929328999999997 7.5000000000000009 14.449160500000001 4.5000000000000009
decision_type=2 2 2 2 2 2 2 2 2
left_child=1 5 3 8 7 -1 -2 -4 -3
right_child=6 2 4 -5 -6 -7 -8 -9 -10
leaf_value=-0.022812323924645883 0.0053737045824699559 0.008148429130151319 0.0028260949506075024 0.0072840551425648733 0.021218362572368116 -0.0088780789997489444 0.023248338657380723 0.019999862962244097 -0.0058867043352686457
leaf_weight=986.80012893429375 491.26595469447784 606.36263343686005 3199.5466388459317 1226.9627733643865 610.43300230789464 2171.8992651008593 1182.2813102258369 416.36255699535832 5526.431637940841
leaf_count=120092 7158 25568 138781 32181 13134 136203 10701 11888 227706
internal_value=0 -0.00204316 0.00100703 -0.00253464 0.00717448 -0.0132312 0.0180013 0.00480361 -0.00449902
internal_weight=0 14744.8 11586.1 7359.76 4226.34 3158.7 1673.55 3615.91 6132.79
internal_count=723412 705553 449258 285455 163803 256295 17859 150669 253274
is_linear=0
shrinkage=0.05


Tree=35
num_leaves=10
num_cat=0
split_feature=29 133 14 71 13 125 5 128 93
split_gain=235.436 135.266 92.654 75.1725 77.405 78.5332 66.3086 59.4692 40.1221
threshold=2.5000000000000004 8.5000000000000018 1113.5000000000002 21.716431500000002 4.5000000000000009 1.5000000000000002 0.88194450000000013 2.5000000000000004 0.50653150000000013
decision_type=2 2 2 2 2 2 2 2 2
left_child=2 3 6 4 5 -2 -1 8 -6
right_child=1 -3 -4 -5 7 -7 -8 -9 -10
leaf_value=-0.0015962563091210945 0.0042359636641114548 0.020245508254300153 -0.025511154006157628 0.016618642391853962 -0.0095113902673950659 0.030457045100318405 -0.013878758413548971 0.0033209901028491786 0.001446827028955077
leaf_weight=3087.8606262599642 994.18948093889048 1180.6368930628523 694.24523199321993 839.18201938003767 2354.4432869196171 400.626710888464 1705.9092028587038 3786.5139104086702 1294.593825717835
leaf_count=174074 39394 12698 68070 16806 119571 10245 120541 112247 49766
internal_value=0 0.00426867 -0.00843947 0.00231793 0.000958879 0.0117673 -0.0059671 -0.00106865 -0.00562367
internal_weight=0 10850.2 5488.02 9669.55 8830.37 1394.82 4793.77 7435.55 3649.04
internal_count=723412 360727 362685 348029 331223 49639 294615 281584 169337
is_linear=0
shrinkage=0.05


Tree=36
num_leaves=10
num_cat=0
split_feature=54 129 107 128 114 134 13 130 74
split_gain=222.691 139.158 85.7112 70.1041 65.5244 55.7533 55.2155 52.8251 56.4559
threshold=0.0056295000000000008 63742.500000000007 21.924816000000003 12.500000000000002 -30.903213499999996 29.500000000000004 4.5000000000000009 65532.500000000007 182.55775500000001
decision_type=2 2 2 2 2 2 2 2 2
left_child=4 2 3 6 -1 -6 -2 -5 -9
right_child=1 -3 -4 7 5 -7 -8 8 -10
leaf_value=-0.034068800549941908 0.0065532705351896677 0.023175070740170611 0.010383809972500801 0.0019047400607484369 -0.0091769642611208204 0.0078135964163256553 -0.0048880792057506483 0.0083245014763376462 0.040772070521680692
leaf_weight=239.93448805030494 1337.4109573194874 872.26941200182773 2511.8985921281856 804.3206747417571 4401.3555938044301 542.32424226790317 4984.9727360046818 317.69143997400533 231.91756239021197
leaf_count=30721 47296 20131 57022 22450 294057 24692 216755 6781 3507
internal_value=0 0.00400777 0.00236675 -0.000256649 -0.00855154 -0.00731309 -0.00246782 0.0100688 0.0220163
internal_weight=0 11060.5 10188.2 7676.31 5183.61 4943.68 6322.38 1353.93 549.609
internal_count=723412 373942 353811 296789 349470 318749 264051 32738 10288
is_linear=0
shrinkage=0.05


Tree=37
num_leaves=10
num_cat=0
split_feature=54 129 107 123 46 134 13 24 128
split_gain=211.88 127.421 67.4891 62.059 60.82 53.5198 46.4169 45.0204 41.2893
threshold=0.0081315000000000016 43654.000000000007 16.640982500000003 -17.478612499999997 0.53137250000000014 200.50000000000003 4.5000000000000009 15.500000000000002 2.5000000000000004
decision_type=2 2 2 2 2 2 2 2 2
left_child=2 4 3 -1 6 -3 -2 -8 -5
right_child=1 5 -4 8 -6 -7 7 -9 -10
leaf_value=-0.01796869716995899 0.0091084782098874509 0.010787600742795004 0.002700081481832671 -0.010519519329110293 0.012979182270119433 0.030165884858458759 -0.0090319896403480062 0.00064367565065541856 0.0015690308610600133
leaf_weight=1677.6332811936591 1049.4501432781108 2139.1286436155788 1277.7630791843403 1875.541763547837 949.30842051818036 427.51684611488599 1739.5184698009398 3892.3322819957975 1133.1202438065084
leaf_count=162034 33545 65280 46728 124790 17587 5749 92733 117854 57112
internal_value=0 0.00437831 -0.00748596 -0.0102633 0.00113677 0.0140154 -0.000545855 -0.00234486 -0.00596674
internal_weight=0 10197.3 5964.06 4686.3 7630.61 2566.65 6681.3 5631.85 3008.66
internal_count=723412 332748 390664 343936 261719 71029 244132 210587 181902
is_linear=0
shrinkage=0.05


Tree=38
num_leaves=10
num_cat=0
split_feature=87 129 63 134 24 132 10 107 100
split_gain=203.347 136.123 85.7032 62.8219 57.34 52.9262 50.5446 44.2858 44.242
threshold=4.5921520000000013 31267.500000000004 0.090097500000000011 237.50000000000003 25.500000000000004 66.500000000000014 2320.5000000000005 20.924608000000003 0.29844350000000003
decision_type=2 2 2 2 2 2 2 2 2
left_child=2 4 6 7 -2 -6 8 -3 -1
right_child=1 3 -4 -5 5 -7 -8 -9 -10
leaf_value=-0.0036803530127425192 -0.0044048515214699302 0.0064858097808806262 0.0087232528967946862 0.03016308154303407 0.0071502970093005186 -0.0068519304440605722 -0.033568538785757725 0.021855373073123328 -0.014081728567060926
leaf_weight=1809.2467034968286 3632.9356775523338 2289.2183448123978 642.91707423218759 428.00690502976067 3234.1048358372645 852.82449576625368 231.37178775086068 589.34588248527143 2350.5238520523708
leaf_count=102422 152043 74829 36122 5866 86680 23582 26589 11496 203783
internal_value=0 0.00380146 -0.0083266 0.01229 0.000165647 0.00422844 -0.0108229 0.00963251 -0.00955776
internal_weight=0 11026.4 5034.06 3306.57 7719.87 4086.93 4391.14 2878.56 4159.77
internal_count=723412 354496 368916 92191 262305 110262 332794 86325 306205
is_linear=0
shrinkage=0.05


Tree=39
num_leaves=10
num_cat=0
split_feature=54 129 74 134 109 114 5 107 132
split_gain=192.549 119.186 68.0803 60.6125 58.0413 53.1747 42.5568 45.21 39.6788
threshold=0.0054070000000000012 31267.500000000004 94.785900000000012 32.500000000000007 20.912226500000003 -26.985309999999995 0.85164850000000014 13.726536000000001 61.500000000000007
decision_type=2 2 2 2 2 2 2 2 2
left_child=3 2 -2 5 -3 -1 -7 -8 -4
right_child=1 4 8 -5 -6 6 7 -9 -10
leaf_value=-0.028417252251781086 -0.0050863330530558411 0.0056580450133142789 0.0069773176257319743 0.0071212877472686814 0.0185272702076382 -0.0044626811659924511 -0.022863063022334845 -0.0056821331005126544 -0.0055223336557140333
leaf_weight=365.46542438241158 3431.4339068927802 2037.4956004732521 3215.6965072240564 573.95394252025289 1537.1025453897892 2494.2444343586394 839.421557167836 704.03817264450481 791.08580564369913
leaf_count=44704 161812 70042 86773 24854 37796 150441 92115 33249 21626
internal_value=0 0.00368856 8.2665e-05 -0.00816163 0.0111919 -0.0101538 -0.00850067 -0.0150261 0.00450943
internal_weight=0 11012.8 7438.22 4977.12 3574.6 4403.17 4037.7 1543.46 4006.78
internal_count=723412 378049 270211 345363 107838 320509 275805 125364 108399
is_linear=0
shrinkage=0.05


Tree=40
num_leaves=10
num_cat=0
split_feature=133 64 132 126 106 114 135 128 14
split_gain=185.968 160.296 88.0129 91.8794 69.3047 43.139 39.1776 34.0307 47.1112
threshold=4.5000000000000009 0.011076500000000001 10.500000000000002 31.500000000000004 13.643543000000003 -30.903213499999996 14.646637939962853 2.5000000000000004 62.500000000000007
decision_type=2 2 2 2 2 2 2 2 2
left_child=1 5 3 -3 -5 -1 -2 8 -7
right_child=6 2 -4 4 -6 7 -8 -9 -10
leaf_value=-0.035828495771508699 0.0028589951720868769 0.013550170182305235 -0.0044106265026549246 -0.0017733720696169594 0.015283820164735874 0.0056848269665007141 0.020724110265761455 -0.0033427012081888468 -0.017965487131431673
leaf_weight=179.81173899650457 413.10051162284799 1998.6105970921344 4602.5915270147379 4014.1344875426148 699.24237112572882 243.79484928923193 1193.4598090879153 1032.6887110019161 1544.9492273278302
leaf_count=27398 5973 74378 183438 175823 15619 18622 11886 68377 141898
internal_value=0 -0.0018102 0.000914726 0.00456646 0.000757109 -0.0120831 0.0161304 -0.0105697 -0.0147421
internal_weight=0 14315.8 11314.6 6711.99 4713.38 3001.24 1606.56 2821.43 1788.74
internal_count=723412 705553 449258 265820 191442 256295 17859 228897 160520
is_linear=0
shrinkage=0.05


Tree=41
num_leaves=10
num_cat=0
split_feature=29 133 14 71 13 125 129 48 47
split_gain=176.35 103.208 73.099 64.2043 67.0452 74.4671 58.2151 55.7255 50.3359
threshold=2.5000000000000004 55.500000000000007 1113.5000000000002 21.716431500000002 4.5000000000000009 1.5000000000000002 25742.500000000004 0.10172400000000002 0.35787000000000008
decision_type=2 2 2 2 2 2 2 2 2
left_child=2 3 6 4 5 -2 -1 8 -6
right_child=1 -3 -4 -5 7 -7 -8 -9 -10
leaf_value=-0.0094606539940237169 0.0036077686177639666 0.020854429278386256 -0.023464143786105056 0.015120891070789217 -0.011104442873641467 0.028010205910937964 0.0023224306261294815 0.0029329665932430297 0.0014129098807030714
leaf_weight=2984.7545298841578 1110.5110741122626 810.31699423771352 631.47980503177678 886.32681213715114 1900.6053813613253 435.13664201533538 1615.6379782312433 4073.3918286692351 1390.8984005745733
leaf_count=199160 40401 8367 68070 17378 104139 10260 95455 134818 45364
internal_value=0 0.00370529 -0.00751216 0.00228685 0.00101025 0.0104776 -0.00532249 -0.000976637 -0.00581496
internal_weight=0 10607.2 5231.87 9796.87 8910.54 1545.65 4600.39 7364.9 3291.5
internal_count=723412 360727 362685 352360 334982 50661 294615 284321 149503
is_linear=0
shrinkage=0.05


Tree=42
num_leaves=10
num_cat=0
split_feature=29 129 14 107 128 129 135 130 13
split_gain=167.289 95.4518 69.3863 65.5659 64.9095 57.0029 45.3777 45.0337 44.1649
threshold=2.5000000000000004 63495.500000000007 1113.5000000000002 21.310650000000003 22.500000000000004 25742.500000000004 13.003333333333352 65532.500000000007 6.5000000000000009
decision_type=2 2 2 2 2 2 2 2 2
left_child=2 3 5 4 8 -1 -5 -6 -2
right_child=1 -3 -4 6 7 -7 -8 -9 -10
leaf_value=-0.0094725615582270401 0.0029386477680327168 0.019356320632668782 -0.023250101346206517 0.005909601627099176 0.00013415941715587713 0.0021342396786647655 0.02338237582593192 0.025952608071529527 -0.0055430797658578244
leaf_weight=2910.1964626448898 2649.6527306210482 881.86993061058456 606.66595464201964 2261.5810152826598 308.52722849627025 1661.8992081177712 444.64120699872728 373.18644945794949 3647.6742411022133
leaf_count=199160 100517 19849 68070 55558 9616 95455 7372 7658 160157
internal_value=0 0.0036079 -0.00736183 0.00217396 -0.00038779 -0.00525364 0.00878044 0.0142678 -0.00197432
internal_weight=0 10567.1 5178.76 9685.26 6979.04 4572.1 2706.22 681.714 6297.33
internal_count=723412 360727 362685 340878 277948 294615 62930 17274 260674
is_linear=0
shrinkage=0.05


Tree=43
num_leaves=10
num_cat=0
split_feature=64 129 133 107 132 108 48 13 112
split_gain=160.661 125.35 75.1639 59.983 50.1975 55.8915 46.1989 43.5385 42.614
threshold=0.0099965000000000019 11944.500000000002 217.50000000000003 21.618076500000004 17.500000000000004 13.672103000000002 0.27429450000000005 3.5000000000000004 -25.619596499999997
decision_type=2 2 2 2 2 2 2 2 2
left_child=8 6 3 4 5 -3 7 -2 -1
right_child=1 2 -4 -5 -6 -7 -8 -9 -10
leaf_value=-0.027745276824592963 0.025725752145990072 0.0037995462031784411 0.025430402621071036 0.017523503087377282 -0.0058941546793779571 0.021343541171271366 0.0088853444651424886 -0.0045615413446755786 -0.0085696453392893526
leaf_weight=327.73371245778981 121.16564832534641 3134.6578014040715 533.46319585852325 914.76584252843168 1087.0328582537477 530.85185404657386 798.69784521462861 5730.2490062668803 2498.5204178743297
leaf_count=49289 3797 132194 4778 18871 46521 14175 21291 241075 191421
internal_value=0 0.00237373 0.00748769 0.00579875 0.00354198 0.00634033 -0.00239469 -0.00393438 -0.0107933
internal_weight=0 12850.9 6200.77 5667.31 4752.54 3665.51 6650.11 5851.41 2826.25
internal_count=723412 482702 216539 211761 192890 146369 266163 244872 240710
is_linear=0
shrinkage=0.05


Tree=44
num_leaves=10
num_cat=0
split_feature=52 108 134 86 127 126 18 129 133
split_gain=157.322 86.7481 80.2617 66.555 53.0984 50.2336 43.3792 33.5823 32.7504
threshold=0.069502500000000009 14.211137000000003 162.50000000000003 6.8155685000000004 440.50000000000006 28.500000000000004 18.820990500000004 55263.500000000007 508.50000000000006
decision_type=2 2 2 2 2 2 2 2 2
left_child=1 3 4 5 6 8 -2 -3 -1
right_child=2 7 -4 -5 -6 -7 -8 -9 -10
leaf_value=-0.0033106500662407213 -0.0010046106557819333 0.005234652694864503 0.025199933341142251 0.014744381650004698 0.01259046572090454 -0.011951156369229526 0.0075976192465401597 0.034562482745509063 0.027640424301974331
leaf_weight=1558.1291274702962 4795.1905222524656 792.69928369985428 444.11010251613334 311.63271137163974 1313.9195825809147 4090.4403463118797 2110.6108672100818 111.31625261122826 90.428661365061998
leaf_count=102809 170307 34699 6358 14165 33448 305163 52976 2728 759
internal_value=0 -0.00560096 0.00449602 -0.00775945 0.00337739 -0.00898143 0.00162448 0.00884594 -0.00161288
internal_weight=0 6954.65 8663.83 6050.63 8219.72 5739 6905.8 904.016 1648.56
internal_count=723412 460323 263089 422896 256731 408731 223283 37427 103568
is_linear=0
shrinkage=0.05


Tree=45
num_leaves=10
num_cat=0
split_feature=64 129 134 128 14 107 109 29 133
split_gain=146.7 108.548 57.6546 55.8889 41.6597 47.0087 37.8763 37.6573 30.4243
threshold=0.015365500000000002 11944.500000000002 70.500000000000014 2.5000000000000004 52.500000000000007 13.873840000000003 26.818072500000003 5.5000000000000009 238.50000000000003
decision_type=2 2 2 2 2 2 2 2 2
left_child=3 7 6 4 -1 -6 -3 -2 -4
right_child=1 2 8 -5 5 -7 -8 -9 -10
leaf_value=0.0069783427391562416 -0.00690287058221291 0.0032321502045058966 0.012540874815913051 -0.00068163160669131647 -0.018330609746313054 -0.003071637343994548 0.013408737597282928 0.0015239884572901153 0.032273813124369492
leaf_weight=260.83502908775699 2194.9421151984134 3403.7858337756479 492.03505916910945 1788.9863454141741 1788.3126328430517 703.21945859468542 1250.1487537113717 3347.7901344596175 323.93205997347832
leaf_count=19382 111575 129755 13457 101390 174500 32359 35356 103131 2507
internal_value=0 0.00311825 0.00811523 -0.00756165 -0.0120335 -0.0140239 0.0059658 -0.00181308 0.0203747
internal_weight=0 11012.6 5469.9 4541.35 2752.37 2491.53 4653.93 5542.73 815.967
internal_count=723412 395781 181075 327631 226241 206859 165111 214706 15964
is_linear=0
shrinkage=0.05


Tree=46
num_leaves=10
num_cat=0
split_feature=29 129 129 128 107 108 10 135 132
split_gain=140.197 79.0186 63.2671 62.0137 58.8741 44.2379 41.8709 41.1519 38.5199
threshold=2.5000000000000004 63495.500000000007 24723.000000000004 9.5000000000000018 19.776243500000003 13.862500000000002 175.50000000000003 16.033868861024054 1.5000000000000002
decision_type=2 2 2 2 2 2 2 2 2
left_child=2 3 -1 4 -2 -5 -4 -6 -7
right_child=1 -3 6 5 7 8 -8 -9 -10
leaf_value=-0.011093772324443056 -0.0035460394907753062 0.017582554611427582 0.010162832588514858 0.0048498349155793666 0.0031303731868304826 0.039812642761430254 -0.005354137703642247 0.020454449005572212 0.012645482404438482
leaf_weight=3200.6080561055714 4713.1457219018484 887.12338353478117 700.10983184023644 1482.5507160099223 2328.7111050533131 185.54843912966317 1147.0137486724125 401.96116367779905 439.61669246584643
leaf_count=247556 217637 19849 35055 42914 62379 2422 80074 7066 8460
internal_value=0 0.00330818 -0.00684129 0.00198241 -0.000161392 0.00955369 0.000527214 0.00568052 0.0207087
internal_weight=0 10438.7 5047.73 9551.53 7443.82 2107.72 1847.12 2730.67 625.165
internal_count=723412 360727 362685 340878 287082 53796 115129 69445 10882
is_linear=0
shrinkage=0.05


Tree=47
num_leaves=10
num_cat=0
split_feature=64 129 108 107 132 110 48 13 109
split_gain=133.719 93.8347 69.599 54.6312 45.3806 41.5977 40.8341 48.954 35.9683
threshold=0.018639500000000003 41019.500000000007 15.055369500000003 19.093730500000003 53.500000000000007 -30.535108499999996 0.26491250000000005 4.5000000000000009 20.912226500000003
decision_type=2 2 2 2 2 2 2 2 2
left_child=2 4 3 5 6 -1 7 -2 -3
right_child=1 8 -4 -5 -6 -7 -8 -9 -10
leaf_value=-0.033373566736013723 0.012668250805562446 0.0066206109048718362 0.010886126865589782 0.0048831870316963684 -0.0079196537338795288 -0.0090787129180062414 0.013762100086447541 -0.0012361680187526708 0.018223848742882975
leaf_weight=183.99960191421269 742.01270025240956 1658.0005345892278 539.5321405773866 706.60669131000759 1318.6473569898517 4151.0260924542381 691.39527708379319 4309.8869502028683 1118.4099336312502
leaf_count=29727 24947 54151 19035 24282 49006 301672 17341 176484 26767
internal_value=0 0.00350697 -0.00618201 -0.00800856 0.000445215 -0.0101099 0.00236577 0.000806085 0.0112947
internal_weight=0 9838.35 5581.16 5041.63 7061.94 4335.03 5743.29 5051.9 2776.41
internal_count=723412 348696 374716 355681 267778 331399 218772 201431 80918
is_linear=0
shrinkage=0.05


Tree=48
num_leaves=10
num_cat=0
split_feature=133 64 132 126 106 114 134 133 14
split_gain=130.765 114.352 76.3352 75.4239 51.7598 36.429 33.1754 28.7635 28.1623
threshold=2.5000000000000004 0.011076500000000001 10.500000000000002 31.500000000000004 11.238239000000002 -30.903213499999996 62.500000000000007 227.50000000000003 62.500000000000007
decision_type=2 2 2 2 2 2 2 2 2
left_child=1 5 3 -3 -5 -1 -2 -8 -7
right_child=6 2 -4 4 -6 8 7 -9 -10
leaf_value=-0.033842279120808748 0.0075604790305008459 0.012035772087915786 -0.0044386523018175904 -0.0021225269762593698 0.011406241813730983 0.0067818339167019072 0.007121812564830997 0.02943068435227867 -0.010923988892805554
leaf_weight=159.72083758036752 996.51726633822545 2056.5990033936105 4352.4103680985863 3658.6497797594056 876.33724883117247 248.09983105110587 215.78294832166284 437.29422623198479 2369.2892723461846
leaf_count=27396 13614 74019 182765 169217 21741 18747 2489 3596 209828
internal_value=0 -0.00159905 0.000700297 0.00409354 0.000491761 -0.0106603 0.0133007 0.0220596 -0.00924567
internal_weight=0 13721.1 10944 6591.59 4534.99 2777.11 1649.59 653.077 2617.39
internal_count=723412 703713 447742 264977 190958 255971 19699 6085 228575
is_linear=0
shrinkage=0.05


Tree=49
num_leaves=10
num_cat=0
split_feature=52 63 13 74 132 36 133 125 134
split_gain=123.825 74.613 72.7946 56.1651 71.0601 49.0794 42.8978 37.7764 42.9928
threshold=0.069502500000000009 0.060915000000000004 4.5000000000000009 166.02962000000002 1.5000000000000002 0.51923100000000011 1.0000000180025095e-35 1.5000000000000002 499.50000000000006
decision_type=2 2 2 2 2 2 2 2 2
left_child=1 5 7 -4 -5 6 -1 8 -2
right_child=2 -3 3 4 -6 -7 -8 -9 -10
leaf_value=-0.01059100070991471 0.0056736845943711504 0.0045634740311220221 -0.0011178711940636218 0.03044444219590179 0.0047094535081498058 0.0098076858388393418 0.0069528365876330616 0.027029625267311386 0.033503666423310478
leaf_weight=4485.3024359304691 1086.3650115116034 1558.0849198288633 4898.007889853674 319.61976708681323 1668.5140844030539 363.94850553997094 377.78651040024124 391.80066779139452 159.09811731928494
leaf_count=357334 32338 81975 175696 5201 39956 16170 4844 8173 1725
internal_value=0 -0.00504005 0.00401217 0.00175905 0.00884671 -0.00790269 -0.00922812 0.0134885 0.00922875
internal_weight=0 6785.12 8523.41 6886.14 1988.13 5227.04 4863.09 1637.26 1245.46
internal_count=723412 460323 263089 220853 45157 378348 362178 42236 34063
is_linear=0
shrinkage=0.05


end of trees

feature_importances:
Column_133=52
Column_107=35
Column_128=28
Column_134=25
Column_64=24
Column_132=24
Column_129=21
Column_122=17
Column_7=16
Column_14=16
Column_114=16
Column_13=15
Column_29=15
Column_48=13
Column_54=13
Column_24=10
Column_106=10
Column_74=9
Column_130=8
Column_108=7
Column_126=7
Column_100=6
Column_109=6
Column_125=6
Column_135=6
Column_49=4
Column_5=3
Column_46=3
Column_52=3
Column_71=3
Column_10=2
Column_47=2
Column_53=2
Column_62=2
Column_63=2
Column_123=2
Column_15=1
Column_17=1
Column_18=1
Column_36=1
Column_45=1
Column_59=1
Column_83=1
Column_86=1
Column_87=1
Column_92=1
Column_93=1
Column_110=1
Column_112=1
Column_113=1
Column_119=1
Column_124=1
Column_127=1

parameters:
[boosting: gbdt]
[objective: lambdarank]
[metric: ndcg]
[tree_learner: serial]
[device_type: cpu]
[data: ]
[valid: ]
[num_iterations: 50]
[learning_rate: 0.05]
[num_leaves: 10]
[num_threads: -1]
[deterministic: 0]
[force_col_wise: 0]
[force_row_wise: 0]
[histogram_pool_size: -1]
[max_depth: -1]
[min_data_in_leaf: 20]
[min_sum_hessian_in_leaf: 0.001]
[bagging_fraction: 1]
[pos_bagging_fraction: 1]
[neg_bagging_fraction: 1]
[bagging_freq: 0]
[bagging_seed: 3]
[feature_fraction: 1]
[feature_fraction_bynode: 1]
[feature_fraction_seed: 2]
[extra_trees: 0]
[extra_seed: 6]
[early_stopping_round: 0]
[first_metric_only: 0]
[max_delta_step: 0]
[lambda_l1: 0]
[lambda_l2: 0]
[linear_lambda: 0]
[min_gain_to_split: 0]
[drop_rate: 0.1]
[max_drop: 50]
[skip_drop: 0.5]
[xgboost_dart_mode: 0]
[uniform_drop: 0]
[drop_seed: 4]
[top_rate: 0.2]
[other_rate: 0.1]
[min_data_per_group: 100]
[max_cat_threshold: 32]
[cat_l2: 10]
[cat_smooth: 10]
[max_cat_to_onehot: 4]
[top_k: 20]
[monotone_constraints: ]
[monotone_constraints_method: basic]
[monotone_penalty: 0]
[feature_contri: ]
[forcedsplits_filename: ]
[refit_decay_rate: 0.9]
[cegb_tradeoff: 1]
[cegb_penalty_split: 0]
[cegb_penalty_feature_lazy: ]
[cegb_penalty_feature_coupled: ]
[path_smooth: 0]
[interaction_constraints: ]
[verbosity: -1]
[saved_feature_importance_type: 0]
[linear_tree: 0]
[max_bin: 255]
[max_bin_by_feature: ]
[min_data_in_bin: 3]
[bin_construct_sample_cnt: 200000]
[data_random_seed: 1]
[is_enable_sparse: 1]
[enable_bundle: 1]
[use_missing: 1]
[zero_as_missing: 0]
[feature_pre_filter: 1]
[pre_partition: 0]
[two_round: 0]
[header: 0]
[label_column: ]
[weight_column: ]
[group_column: ]
[ignore_column: ]
[categorical_feature: ]
[forcedbins_filename: ]
[precise_float_parser: 0]
[objective_seed: 5]
[num_class: 1]
[is_unbalance: 0]
[scale_pos_weight: 1]
[sigmoid: 1]
[boost_from_average: 1]
[reg_sqrt: 0]
[alpha: 0.9]
[fair_c: 1]
[poisson_max_delta_step: 0.7]
[tweedie_variance_power: 1.5]
[lambdarank_truncation_level: 30]
[lambdarank_norm: 1]
[label_gain: 0,1,2,3,4]
[eval_at: 5,10]
[multi_error_top_k: 1]
[auc_mu_weights: ]
[num_machines: 1]
[local_listen_port: 12400]
[time_out: 120]
[machine_list_filename: ]
[machines: ]
[gpu_platform_id: -1]
[gpu_device_id: -1]
[gpu_use_dp: 0]
[num_gpu: 1]

end of parameters

pandas_categorical:null
